{"type":"LSTMTimeStep","options":{"inputSize":2,"inputRange":0,"hiddenLayers":[10],"outputSize":2,"decayRate":0.999,"smoothEps":1e-8,"regc":0.000001,"clipval":5,"maxPredictionLength":100,"dataFormatter":{"indexTable":{},"characterTable":{},"characters":[],"specialIndexes":[]}},"hiddenLayers":[{"inputMatrix":{"rows":10,"columns":2,"weights":[-0.562989354133606,-0.5799964666366577,0.29102882742881775,0.6341385841369629,0.4927688539028168,-0.29029756784439087,0.5633595585823059,0.7778445482254028,-0.5908662676811218,-0.5765203237533569,-0.43671393394470215,-0.4934253990650177,-0.6654324531555176,-0.5580445528030396,0.6734125018119812,0.678533136844635,-1.1059668064117432,0.641025722026825,-0.6378458142280579,-0.5759433507919312]},"inputHidden":{"rows":10,"columns":10,"weights":[0.03153939172625542,0.4408520460128784,0.2405158430337906,-0.39209988713264465,0.048066359013319016,0.0068445769138634205,0.03852839395403862,0.42164346575737,-0.27634260058403015,0.10402584075927734,-0.3336867690086365,-0.34216544032096863,-0.43031537532806396,0.2926045358181,-0.2712104320526123,-0.2038763165473938,-0.20809757709503174,-0.3595047891139984,0.3734453022480011,-0.2635182738304138,-0.06805924326181412,-0.009497060440480709,-2.2056355476379395,-0.08011545240879059,0.05110310763120651,0.16363036632537842,-0.12387744337320328,0.026032181456685066,-0.6127535104751587,-0.07186933606863022,0.19026681780815125,-0.5521607398986816,-0.38509124517440796,0.5077428817749023,0.08114639669656754,0.1428249180316925,0.029401538893580437,-0.5450558662414551,0.4098129868507385,0.03513074293732643,-0.04747919365763664,0.4124717116355896,0.26544445753097534,-0.41582438349723816,0.09379655122756958,-0.06623931974172592,0.09147001057863235,0.35715484619140625,-0.3631688058376312,0.10518534481525421,-0.13161738216876984,0.43664756417274475,0.20744678378105164,-0.5498130321502686,-0.062480878084897995,-0.163107231259346,0.040792107582092285,0.50377357006073,-0.39686164259910583,-0.03609625995159149,-0.015452605672180653,0.329574853181839,0.3748871982097626,-0.3381166458129883,0.02233896031975746,0.06694774329662323,0.03188192471861839,0.4162869155406952,-0.36439454555511475,-0.006146910134702921,0.009675838053226471,-0.46685782074928284,-0.33984342217445374,0.3480853736400604,-0.12772557139396667,-0.03360098600387573,-0.02676827274262905,-0.3185650110244751,0.3372206687927246,-0.06992756575345993,0.10370435565710068,1.8588849306106567,1.0693937540054321,-1.6575348377227783,-0.020439153537154198,-0.046810880303382874,-0.04546741023659706,1.6601778268814087,-1.222032904624939,-0.041593998670578,0.05088329687714577,0.3339895009994507,0.37692975997924805,-0.4532751142978668,-0.036524731665849686,-0.01456926017999649,0.0650191679596901,0.4414046108722687,-0.2920716404914856,-0.035764310508966446]},"inputBias":{"rows":10,"columns":1,"weights":[-0.44381454586982727,0.71666020154953,0.054178591817617416,0.7755419611930847,-0.39860454201698303,-0.6519201993942261,-0.3010772466659546,0.7187085747718811,1.6828367710113525,-0.3219797611236572]},"forgetMatrix":{"rows":10,"columns":2,"weights":[-0.3302994668483734,-0.41248393058776855,0.2143145352602005,0.487678200006485,0.6051743626594543,0.37844201922416687,0.6821033358573914,0.6759190559387207,-0.33765605092048645,-0.42140406370162964,-0.29410457611083984,-0.3840866982936859,-0.37619543075561523,-0.31437817215919495,0.5884303450584412,0.5482760667800903,-0.3325765132904053,0.0038641183637082577,-0.4211311340332031,-0.3582606315612793]},"forgetHidden":{"rows":10,"columns":10,"weights":[-0.0711030513048172,0.04661279916763306,0.10077042877674103,-0.14831885695457458,-0.057786766439676285,-0.051631033420562744,-0.026366809383034706,0.042615849524736404,-0.0020034697372466326,-0.05129352957010269,-0.2683662474155426,-0.5358943343162537,-0.659510612487793,0.5286734104156494,-0.17777502536773682,-0.21211722493171692,-0.1166091337800026,-0.5101256966590881,0.3707028329372406,-0.2663605511188507,-0.18288029730319977,-0.8266580700874329,-0.8546656370162964,0.5815528035163879,-0.08881396055221558,0.016822176054120064,-0.06481970846652985,-0.5639892220497131,0.6346331238746643,-0.11758774518966675,0.04649362713098526,-0.5210207104682922,-0.35430604219436646,0.4117952883243561,-0.039411067962646484,-0.020252183079719543,0.028172945603728294,-0.34499576687812805,0.4137421250343323,-0.08794551342725754,0.03419750928878784,0.07093784213066101,-0.021647198125720024,-0.06556202471256256,-0.044025909155607224,-0.009527941234409809,0.008068522438406944,0.0408487468957901,0.02316957898437977,-0.035933054983615875,-0.021725233644247055,0.14828966557979584,0.015856493264436722,-0.13203278183937073,-0.08554799854755402,-0.1286163181066513,-0.010216536931693554,0.15379351377487183,0.024735765531659126,-0.037452951073646545,-0.01632886752486229,0.09627162665128708,0.012394639663398266,-0.10922965407371521,0.025328105315566063,0.005140263587236404,0.07265368849039078,0.1006709635257721,0.013351600617170334,0.05157829821109772,-0.09599806368350983,-0.40443602204322815,-0.42852768301963806,0.3621525168418884,-0.06357500702142715,-0.14871986210346222,-0.1533895581960678,-0.32763558626174927,0.3415238559246063,-0.17723499238491058,-0.3504836857318878,0.4385932385921478,0.3373761475086212,-0.23862354457378387,-0.2978500425815582,-0.23404352366924286,-0.2511439323425293,0.3594156503677368,-0.07795188575983047,-0.2981622517108917,-0.0466533862054348,0.11200366169214249,0.007080018986016512,-0.022892627865076065,0.0504295788705349,-0.01474694348871708,-0.04042429104447365,0.012490073218941689,-0.04346979036927223,0.03988683223724365]},"forgetBias":{"rows":10,"columns":1,"weights":[0,0,0,0,0,0,0,0,0,0]},"outputMatrix":{"rows":10,"columns":2,"weights":[-0.5805764198303223,-0.60540372133255,0.22821666300296783,0.7770233154296875,0.9238885045051575,0.6315558552742004,0.6904981732368469,0.7525972723960876,-0.6869444847106934,-0.5596420764923096,-0.4110645055770874,-0.44737619161605835,-0.6814799308776855,-0.6594179272651672,0.6608306169509888,0.6283901929855347,0.7087030410766602,0.8571614027023315,-0.6401618719100952,-0.6408633589744568]},"outputHidden":{"rows":10,"columns":10,"weights":[-0.04479854553937912,0.3976579010486603,0.3589287996292114,-0.3705988824367523,0.06601627171039581,-0.07649466395378113,0.04268785938620567,0.39342913031578064,-0.34425511956214905,0.12485918402671814,-0.3893563151359558,-0.5389251112937927,-0.48704126477241516,0.4123408794403076,-0.38203662633895874,-0.3785147964954376,-0.3121468126773834,-0.5452775955200195,0.4660768508911133,-0.2738601267337799,-0.1990388184785843,-0.7771472334861755,-0.8037347793579102,0.6663657426834106,-0.2535911798477173,-0.1465282142162323,-0.3005138635635376,-0.6308407783508301,0.6032497882843018,-0.22271865606307983,0.09547900408506393,-0.5465117692947388,-0.34135201573371887,0.5301110744476318,-0.14700450003147125,0.05387343466281891,-0.2437145859003067,-0.5208358764648438,0.5331861972808838,-0.0803111270070076,-0.0745958760380745,0.4117385447025299,0.29115524888038635,-0.4226362109184265,0.07601915299892426,-0.05228980630636215,-0.02604161947965622,0.4532482326030731,-0.3981444537639618,-0.05865250900387764,-0.18114709854125977,0.5400750637054443,0.26826316118240356,-0.5093995332717896,-0.06609909236431122,-0.15995049476623535,-0.05994829535484314,0.4274236559867859,-0.5044227838516235,0.006581468973308802,0.0805336982011795,0.31423550844192505,0.3261539340019226,-0.32710766792297363,-0.021066982299089432,-0.0628197193145752,0.12088045477867126,0.3066633343696594,-0.36598193645477295,0.059916313737630844,-0.0918641984462738,-0.4194086492061615,-0.3008865714073181,0.3835507035255432,-0.23179736733436584,-0.08181964606046677,-0.29608210921287537,-0.3961144983768463,0.4273756742477417,-0.20873282849788666,-0.1577790379524231,-0.18929827213287354,0.3984881341457367,0.17959372699260712,-0.16201859712600708,-0.03975667059421539,-0.1403454691171646,-0.1657128483057022,0.22065414488315582,-0.0440494641661644,-0.07315561920404434,0.3569870889186859,0.32749617099761963,-0.412254273891449,0.027228623628616333,-0.06625969707965851,0.05131782218813896,0.39089563488960266,-0.32794883847236633,-0.04381822422146797]},"outputBias":{"rows":10,"columns":1,"weights":[-0.45214128494262695,0.7114071846008301,-0.4051651060581207,0.7735246419906616,-0.3992568850517273,-0.6585385203361511,-0.29759299755096436,0.7540192604064941,0.8884711265563965,-0.3177309036254883]},"cellActivationMatrix":{"rows":10,"columns":2,"weights":[-0.2986316382884979,-0.26151666045188904,-0.7160782814025879,-0.49921372532844543,-0.49643805623054504,0.20349055528640747,0.41417473554611206,0.39597320556640625,-0.26096591353416443,-0.3155621886253357,-0.268515408039093,-0.3031972050666809,-0.28462040424346924,-0.32350513339042664,-0.44567376375198364,-0.47445788979530334,-0.13271725177764893,0.5911348462104797,-0.25402429699897766,-0.27939242124557495]},"cellActivationHidden":{"rows":10,"columns":10,"weights":[-0.32911309599876404,0.2843480110168457,-0.10965946316719055,-0.3513006865978241,-0.28992000222206116,-0.29352763295173645,-0.03990303725004196,0.34126052260398865,-0.18214888870716095,-0.1750412881374359,0.03711167722940445,0.18805581331253052,0.17393536865711212,-0.14403103291988373,0.2033742368221283,0.08219496160745621,0.03752904385328293,0.3044982850551605,-0.3794059157371521,0.18486839532852173,-0.3242570459842682,0.7761411070823669,0.6031779050827026,-0.8390859961509705,-0.0684308335185051,-0.13078062236309052,0.1307653784751892,0.9495631456375122,-0.7725885510444641,-0.05267633870244026,0.25808313488960266,-0.37378430366516113,0.10826540738344193,0.3876834213733673,0.3719654977321625,0.2793707251548767,0.07122591882944107,-0.3208129107952118,0.37459221482276917,0.21903376281261444,-0.34899482131004333,0.25848761200904846,-0.16612018644809723,-0.27056601643562317,-0.31122997403144836,-0.2231965959072113,-0.07061124593019485,0.26731395721435547,-0.2973569333553314,-0.22119517624378204,-0.3028651177883148,0.2795213460922241,-0.2946314513683319,-0.23479825258255005,-0.26274538040161133,-0.26230305433273315,-0.11313249915838242,0.27767056226730347,-0.2852042317390442,-0.25354477763175964,-0.321100115776062,0.2976331114768982,-0.08370731770992279,-0.2673434317111969,-0.34504029154777527,-0.3551568388938904,-0.03236297518014908,0.3615573048591614,-0.20867536962032318,-0.3169653117656708,-0.35944506525993347,0.46714434027671814,0.028107423335313797,-0.4655207395553589,-0.13245843350887299,-0.26853787899017334,-0.04475680738687515,0.45784613490104675,-0.3190022110939026,-0.08981870114803314,-0.49743303656578064,-0.09618076682090759,-0.14881424605846405,0.10930507630109787,-0.5459897518157959,-0.5192893147468567,-0.4570191204547882,-0.1408594697713852,0.294967383146286,-0.47911301255226135,-0.3652055859565735,0.3124968409538269,0.026447614654898643,-0.31346631050109863,-0.2775501310825348,-0.3524306118488312,-0.05765535309910774,0.3151044249534607,-0.11404161155223846,-0.31160056591033936]},"cellActivationBias":{"rows":10,"columns":1,"weights":[-0.22907164692878723,-0.432304322719574,1.5159811973571777,0.4703119993209839,-0.30441415309906006,-0.314331978559494,-0.2836361229419708,-0.5875537991523743,0.6579642295837402,0.36341437697410583]}}],"outputConnector":{"rows":2,"columns":10,"weights":[0.22425158321857452,-1.4773378372192383,-1.9388447999954224,1.186767816543579,0.2139979600906372,0.23408503830432892,0.04019492119550705,-1.2203729152679443,0.12308553606271744,0.16307039558887482,0.2835950255393982,-0.2649417519569397,1.6863831281661987,0.32253849506378174,0.1897013783454895,0.18101748824119568,0.00782652385532856,-0.27436867356300354,1.494922161102295,0.22891753911972046]},"output":{"rows":2,"columns":1,"weights":[-0.4926283061504364,1.7490758895874023]},"inputLookup":null,"inputLookupLength":0,"outputLookup":null,"outputLookupLength":0}