{"type":"LSTM","options":{"inputSize":25,"inputRange":25,"hiddenLayers":[20,20],"outputSize":25,"decayRate":0.999,"smoothEps":1e-8,"regc":0.000001,"clipval":5,"maxPredictionLength":100,"dataFormatter":{"indexTable":{"A":0,"r":1,"g":2,"o":3,"n":4,"a":5,"e":6,"t":7,"i":8,"u":9,"s":10,"l":11,"m":12,"c":13,"x":14,"h":15,"B":16,"b":17,"y":18,"C":19,"d":20,"k":21,"stop-input":22,"start-output":23,"unrecognized":24},"characterTable":{"0":"A","1":"r","2":"g","3":"o","4":"n","5":"a","6":"e","7":"t","8":"i","9":"u","10":"s","11":"l","12":"m","13":"c","14":"x","15":"h","16":"B","17":"b","18":"y","19":"C","20":"d","21":"k","22":null,"23":null,"24":null},"values":[{"input":"Argon","output":"a"},{"input":"Argentina","output":"a"},{"input":"Aron","output":"a"},{"input":"August","output":"a"},{"input":"Australia","output":"a"},{"input":"America","output":"a"},{"input":"Allison","output":"a"},{"input":"Alex","output":"a"},{"input":"Arthur","output":"a"},{"input":"Also","output":"a"},{"input":"Barcelona","output":"b"},{"input":"Baseball","output":"b"},{"input":"Bayern","output":"b"},{"input":"Batch","output":"b"},{"input":"Brasillia","output":"b"},{"input":"Brass","output":"b"},{"input":"Bateman","output":"b"},{"input":"Bose","output":"b"},{"input":"Biscuit","output":"b"},{"input":"Bhutan","output":"b"},{"input":"China","output":"c"},{"input":"Chile","output":"c"},{"input":"Cheat","output":"c"},{"input":"Caught","output":"c"},{"input":"Colombia","output":"c"},{"input":"Colorado","output":"c"},{"input":"Cult","output":"c"},{"input":"Cristiano","output":"c"},{"input":"Choke","output":"c"},{"input":"Cut","output":"c"}],"characters":["A","r","g","o","n","a","e","t","i","u","s","l","m","c","x","h","B","b","y","C","d","k","stop-input","start-output","unrecognized"],"specialIndexes":[22,23,24]}},"trainOpts":{"iterations":100,"errorThresh":0.005,"log":true,"logPeriod":50,"learningRate":0.01,"callbackPeriod":10,"timeout":"Infinity","layers":[10]},"input":{"rows":26,"columns":25,"weights":[0.031175870448350906,0.7937859892845154,-0.09102041274309158,-0.6784940958023071,0.21500153839588165,0.7354257702827454,0.10758890211582184,0.2823350429534912,-0.7505807280540466,0.050004370510578156,-0.2559920847415924,0.5659264326095581,0.1823553442955017,2.025883674621582,0.6042362451553345,0.06253094971179962,0.5635109543800354,-0.24330644309520721,-1.3250401020050049,-1.0767453908920288,0.8517979383468628,-0.7025009989738464,-0.6794169545173645,0.526404857635498,1.3323419094085693,-0.3864811658859253,0.2669752836227417,1.1215921640396118,1.0024158954620361,-0.382079541683197,-0.771492600440979,0.2604310214519501,0.5048756003379822,-3.0607588291168213,0.9840995669364929,1.335547924041748,-0.19896161556243896,-1.5184972286224365,1.6128731966018677,0.3208879828453064,0.8332211375236511,-0.6757562756538391,0.089810311794281,-1.359514594078064,-1.784074306488037,1.0553888082504272,-0.34490248560905457,-1.1465216875076294,0.0026367155369371176,0.758269190788269,-2.429609537124634,-1.6515284776687622,1.8669966459274292,1.8547284603118896,-0.5851973295211792,-1.782055139541626,1.2211008071899414,0.0014955224469304085,0.2203623354434967,2.5225307941436768,-1.915724277496338,2.8412973880767822,-3.620960235595703,-0.8759048581123352,-0.35538744926452637,-0.0626167580485344,3.2159371376037598,-2.126885175704956,-1.7508506774902344,0.028655746951699257,-0.7860705256462097,2.0049526691436768,0.4747270941734314,-1.1130563020706177,-0.7088626623153687,-2.7317233085632324,2.270883321762085,0.7989122867584229,-0.40010228753089905,1.2585333585739136,3.0124340057373047,-1.4110370874404907,2.6372628211975098,1.008646011352539,0.34063369035720825,-2.301729679107666,2.4115636348724365,-5.487420082092285,1.6223618984222412,1.3526015281677246,4.175055980682373,0.6555345058441162,-2.1506528854370117,4.537827014923096,-4.620344638824463,2.3779046535491943,-1.3171911239624023,0.02211873233318329,1.7229893207550049,-4.879501819610596,-0.3198539912700653,1.1707535982131958,-1.057138442993164,-1.7531442642211914,2.4549357891082764,1.4537146091461182,-1.967887282371521,-0.17352506518363953,1.3273921012878418,-0.364082932472229,0.47497987747192383,-0.6572995185852051,-0.06698958575725555,0.22150392830371857,-0.4789349436759949,-1.142704725265503,-0.4900928735733032,-0.06600651144981384,2.2710235118865967,1.338754415512085,-1.0556434392929077,-2.512864828109741,0.5911447405815125,2.364248275756836,-2.969104528427124,-1.9478402137756348,0.03820227459073067,1.4215271472930908,0.9858747124671936,-3.0028140544891357,-1.7480452060699463,1.2341334819793701,2.02160906791687,-2.894747257232666,1.0305960178375244,-1.157019853591919,2.311947822570801,-4.531549453735352,1.1528295278549194,1.1775903701782227,0.6719573140144348,1.6198796033859253,-1.374210238456726,-1.3026363849639893,-1.0812814235687256,1.9818663597106934,1.7056471109390259,-0.8137085437774658,-2.989391803741455,2.1447083950042725,-0.3786335587501526,0.014069010503590107,1.262239933013916,0.18324019014835358,-0.6270193457603455,-0.4456638991832733,0.27846986055374146,0.17944122850894928,-0.8335806131362915,0.6644089818000793,-0.21862971782684326,0.857306718826294,0.3205842077732086,-0.07224919646978378,0.9321134686470032,0.5662077069282532,0.9849258661270142,-0.8853249549865723,-0.3044632375240326,-1.2888706922531128,0.4295129179954529,0.39482444524765015,-1.3250080347061157,-0.07420127093791962,0.4799351096153259,-2.4052321910858154,0.03884672001004219,3.812943696975708,0.6888973712921143,0.09899281710386276,-0.8421846628189087,0.12255509942770004,-0.49699580669403076,0.49427756667137146,4.870250225067139,-3.6184539794921875,3.871873378753662,-0.3191220760345459,-0.560543417930603,1.211629033088684,-0.015228919684886932,4.791308403015137,-3.4618961811065674,-0.8899027705192566,-0.34517237544059753,0.39746177196502686,1.068572759628296,-2.7088544368743896,-0.44775933027267456,1.1839255094528198,-0.28238651156425476,-0.6529906392097473,-0.39887818694114685,1.0054144859313965,-0.19285687804222107,-0.5314062833786011,0.6884812712669373,-0.2099096179008484,-1.7771856784820557,0.23199374973773956,0.04548163339495659,-0.08127453923225403,-0.10139342397451401,1.9655330181121826,0.00016880292969290167,-0.16763731837272644,-0.04862324148416519,-0.2802312970161438,-1.4287824630737305,0.011922668665647507,-0.30378079414367676,-0.23534326255321503,0.24943707883358002,0.37156039476394653,0.5969140529632568,0.09991136193275452,-0.04658319801092148,-3.424642562866211,-0.8273252248764038,-0.2941648066043854,0.2659050226211548,2.108560562133789,-1.1339938640594482,-2.556147336959839,-2.243264675140381,1.3173954486846924,-0.6501275300979614,2.4487669467926025,-1.2082961797714233,-2.4265668392181396,-1.3802038431167603,-1.3419264554977417,0.2815225124359131,-1.8366456031799316,-0.38013845682144165,-0.5558805465698242,0.9292648434638977,0.7193053960800171,0.9107186794281006,-1.8917824029922485,-1.594185471534729,-0.21309691667556763,1.051261305809021,1.184084177017212,0.28271836042404175,-1.1882959604263306,0.048965223133563995,-0.3376610279083252,-0.3888808488845825,2.759398937225342,-1.789379596710205,1.76935613155365,-0.6606501340866089,1.1592588424682617,-1.3061603307724,3.738744020462036,2.4366419315338135,-2.1471779346466064,-0.056669969111680984,-2.5046064853668213,0.6413490772247314,-0.357926607131958,-0.6043379902839661,0.08167356252670288,-0.6068289875984192,-0.8814242482185364,1.4159265756607056,2.0267646312713623,-1.609063982963562,-0.045657817274332047,2.085996389389038,0.15307365357875824,2.3286831378936768,-0.967685878276825,0.8729816675186157,-0.8125131130218506,2.976994276046753,1.1587263345718384,0.27698230743408203,2.504477024078369,-0.4535738527774811,2.279174566268921,-1.2491674423217773,-0.3706595003604889,-3.881702184677124,1.5988836288452148,-0.2991974353790283,-3.4931890964508057,0.2606046497821808,-0.054251909255981445,-1.348952054977417,0.7520143389701843,0.5736445188522339,-0.01919093169271946,0.05775797739624977,0.8260573744773865,0.030276862904429436,-2.1133975982666016,-1.2566851377487183,1.0842586755752563,-2.550597667694092,1.7234352827072144,-1.3684067726135254,-2.7836217880249023,-1.0939220190048218,-3.597294330596924,0.5928539037704468,-0.7168015837669373,-0.1298239678144455,2.0565710067749023,-3.185741901397705,2.150144577026367,-1.4725676774978638,-0.9201220870018005,1.7769994735717773,0.7087461948394775,0.3238086998462677,1.4062328338623047,-0.13247542083263397,0.04481316730380058,1.3490605354309082,-1.2547537088394165,-4.151650905609131,0.5535195469856262,1.7839637994766235,-4.606479167938232,1.1789358854293823,0.9095848202705383,-2.89235258102417,2.1408321857452393,-3.4674932956695557,1.3303580284118652,1.0158485174179077,-1.2629209756851196,2.815051794052124,-3.570352792739868,-1.630516529083252,-2.9093358516693115,-0.6101232171058655,6.411657810211182,0.8558558225631714,0.792643129825592,0.689054548740387,-1.7503957748413086,1.1886404752731323,1.6344279050827026,-1.8180941343307495,1.3925954103469849,1.9316222667694092,-0.1967536211013794,0.07164488732814789,-0.6178301572799683,0.46586859226226807,1.3078198432922363,2.7887110710144043,0.4769158959388733,-0.16112135350704193,0.6158131957054138,0.2674868404865265,-0.7759643793106079,0.16227878630161285,-1.5191453695297241,-1.9874205589294434,0.9024094939231873,0.7063942551612854,-3.3743109703063965,-4.0565619468688965,-5.697206497192383,1.1937860250473022,4.837852478027344,-2.0480713844299316,4.656214237213135,-3.3625402450561523,2.900158405303955,-5.060961723327637,-0.644685685634613,-0.22785063087940216,7.129255294799805,0.0180377010256052,-6.519278049468994,-0.35886505246162415,0.49928033351898193,-10.00952434539795,2.9313039779663086,3.0187036991119385,-2.2451395988464355,1.8701462745666504,6.2475762367248535,5.716663837432861,-6.8628315925598145,0.3567611575126648,0.8336358666419983,-0.06623335927724838,0.8924210071563721,2.260356903076172,1.2638980150222778,-0.6112796068191528,0.6494799256324768,0.9884756207466125,-0.2960951626300812,0.06060689687728882,-0.5272637009620667,-1.5896004438400269,-0.34861046075820923,-0.4965643286705017,1.326603651046753,-1.2578840255737305,0.5736275315284729,0.5370806455612183,-1.3609498739242554,0.274994432926178,-0.5609645247459412,0.5971309542655945,1.3275076150894165,-2.217588186264038,-2.343893527984619,1.8955533504486084,3.3565926551818848,-0.9059863090515137,0.6600012183189392,1.597705602645874,-1.5316569805145264,2.813237428665161,2.2846431732177734,2.0168793201446533,-1.2250162363052368,1.7677230834960938,-7.118509769439697,-3.0292088985443115,3.210536003112793,2.86285138130188,0.6829026937484741,-0.1826995462179184,4.02680778503418,-4.260591506958008,1.3432528972625732,0.8821849226951599,-2.133641004562378,-1.4797759056091309,-2.072009563446045,1.8945757150650024,-0.46283775568008423,-5.526939868927002,0.21419493854045868,-3.020375967025757,0.46388205885887146,1.0698883533477783,2.541818380355835,-2.101869821548462,-6.069217681884766,5.904662132263184,-3.1927437782287598,-1.0236444473266602,-0.9401477575302124,-2.5152885913848877,1.1234279870986938,-4.652622699737549,2.6131842136383057,4.684782028198242,-1.994347333908081,0.9280467629432678,1.293174386024475,5.332545280456543,-1.8533357381820679,2.2970473766326904,-3.3979928493499756,6.426629066467285,4.723056793212891,-3.64806866645813,5.980332374572754,2.1130752563476563,-3.562933921813965,5.037042140960693,5.597517967224121,5.441077709197998,-5.825908660888672,5.132830619812012,-0.5564343333244324,1.8842029571533203,3.297907829284668,2.5122127532958984,5.447459697723389,-2.2408368587493896,2.8197290897369385,-3.8088316917419434,1.1062713861465454,-3.2445716857910156,-4.565194129943848,5.340920925140381,-6.9155473709106445,4.184303283691406,-1.331782341003418,-2.2522149085998535,1.7098270654678345,-2.0081329345703125,-2.199932336807251,0.3163270056247711,0.48249146342277527,-1.952236533164978,-4.5510149002075195,4.518734455108643,-4.470005035400391,-0.147518590092659,2.6876485347747803,-1.811845064163208,-0.15064601600170135,-4.092543125152588,3.499927282333374,3.753201723098755,1.481735348701477,0.5528836250305176,0.19416767358779907,4.9604105949401855,-1.3919579982757568,2.138512134552002,6.693906307220459,-1.795395851135254,-8.05691146850586,7.091155529022217,-6.959369659423828,-2.3127031326293945,1.0524760484695435,-2.892404794692993,-7.681239604949951,-6.93363618850708,6.578399181365967,-7.158733367919922,-6.627230167388916,3.9927875995635986,-0.10450546443462372,-3.033628463745117,-7.5347371101379395,9.53200912475586,0.872577428817749,3.8645641803741455,-3.7368857860565186,5.231983661651611,7.639463901519775,-7.398159980773926,4.461589336395264,-3.665233850479126,3.2336578369140625,7.793059349060059,-1.0741595029830933,1.637817621231079,-0.5496925711631775,-1.610413908958435,-1.1106036901474,1.7122009992599487,8.472908973693848,-5.8465118408203125,6.260948657989502,2.0153064727783203,2.0710833072662354,1.6294234991073608,7.103203296661377,9.147895812988281,-5.623247146606445,-2.3424906730651855,-6.640628814697266,3.9893076419830322,-1.3558861017227173,-7.56688117980957,-0.46904614567756653,-0.7574313282966614,0.009441956877708435,-1.1969960927963257,-0.5297975540161133,0.7589611411094666,-0.829592764377594,-1.1393502950668335,1.3179843425750732,-0.11838871985673904,-2.637341260910034,-0.8082690238952637,1.1652164459228516,-0.29160892963409424,-0.14311723411083221,0.6573039889335632,-0.6529946327209473,0.3192807734012604,-1.002763032913208,-0.04969188943505287,0.1882340908050537,-0.29973936080932617,-0.2512001097202301,0.5170983672142029,0.9612358212471008,-0.12686006724834442,0.0904805064201355,-0.12571540474891663,-0.7717416882514954,-1.0025672912597656,0.11956068873405457,-0.9467236995697021,-0.46144041419029236,0.692642331123352,0.43219295144081116,-0.8849222660064697,0.08699209988117218,0.10595008730888367,0.33115100860595703,0.3117019236087799,0.8078089356422424,-1.2156928777694702,0.33664780855178833,0.2077854573726654,-0.6449862718582153,-0.8368121981620789,-0.31697583198547363,0.33000025153160095,-0.05569662153720856,0.08439876139163971,-0.16592833399772644,0.6845270991325378,-0.03592411056160927,-0.027256641536951065,-0.007267136126756668,-0.035665951669216156,0.008714878931641579,0.0324275828897953,-0.018873345106840134,-0.04256071522831917,0.01742490567266941,0.025829650461673737,-0.010158954188227654,-0.04784924536943436,0.011748002842068672,0.05909018963575363,0.07950549572706223,0.027501994743943214,-0.025936054065823555,0.021636120975017548,-0.024971548467874527,-0.07944031804800034,-0.04435281455516815,-0.07129407674074173,0.05111932009458542,-0.013523067347705364,-0.0005832627648487687]},"hiddenLayers":[{"inputMatrix":{"rows":20,"columns":25,"weights":[0.2325575202703476,-0.24108274281024933,-0.6958608031272888,-0.5928199291229248,-0.8548229932785034,0.18566066026687622,-0.1326597034931183,0.764674723148346,-0.39539095759391785,-0.4670247733592987,-0.2415524423122406,-0.04187249019742012,-0.3251635730266571,1.3551669120788574,0.0745900422334671,0.2632506191730499,0.19196051359176636,0.17523422837257385,-0.044668346643447876,-0.1688426285982132,0.5710917115211487,-0.18030425906181335,0.757230818271637,-0.762772262096405,1.657866358757019,0.7489895224571228,-0.1959419995546341,0.4279174208641052,0.3599247336387634,0.9901507496833801,-0.8652143478393555,-1.0544281005859375,-0.10759859532117844,1.4182016849517822,0.15286117792129517,0.41979506611824036,-0.5778754353523254,0.5130957365036011,-0.1438198983669281,0.3781954050064087,-0.3290400505065918,-0.1620035022497177,0.2949739396572113,1.6669477224349976,0.9594532251358032,-0.20013664662837982,-1.1192667484283447,0.013250946067273617,0.4551749527454376,-0.1469363570213318,-1.1307392120361328,-0.35901013016700745,-0.23209014534950256,-0.1428462415933609,-1.1594220399856567,-0.41281774640083313,1.494144320487976,-0.7360630035400391,-1.3031262159347534,0.13144630193710327,-0.32810863852500916,1.0452219247817993,0.7382686734199524,-0.491070032119751,-0.7433362007141113,-0.45363321900367737,0.8074496388435364,-1.320906162261963,-1.5623456239700317,-0.5806875824928284,0.24675612151622772,1.342729926109314,0.36757275462150574,-0.5827959775924683,0.3354858160018921,0.5196679830551147,-0.14516805112361908,-1.2709851264953613,-0.3446086049079895,-0.07262168824672699,-0.252798467874527,0.16996334493160248,-0.3163236081600189,-0.1605435609817505,-1.5621061325073242,1.4727565050125122,-1.2778042554855347,0.8511255383491516,-0.45557454228401184,-1.2304737567901611,-0.6779249906539917,-1.6253749132156372,1.0112162828445435,0.8604954481124878,0.7757225036621094,-0.3297770321369171,0.202546164393425,1.4543095827102661,0.029724538326263428,-0.6704143285751343,0.13274073600769043,1.7124266624450684,0.18133021891117096,-0.6973733305931091,0.868524432182312,1.240020990371704,-1.4199782609939575,0.9648059606552124,0.5277876853942871,0.31132060289382935,0.25973427295684814,-0.20322325825691223,-1.4532825946807861,0.12329654395580292,0.6077183485031128,0.7664695978164673,-0.16424676775932312,0.5062851905822754,0.616786003112793,-0.9074902534484863,0.36112338304519653,-0.9389349818229675,-0.19207067787647247,0.4760315418243408,-0.854193389415741,-0.4557502865791321,1.0424493551254272,0.5128005146980286,-1.0117741823196411,-0.18940964341163635,1.5075352191925049,-0.3073708415031433,1.5061314105987549,0.3036744296550751,-0.1348523050546646,0.15601027011871338,-0.012052261270582676,-0.504580557346344,-0.6259492039680481,1.1887410879135132,1.4471460580825806,-0.03807548061013222,0.08310753107070923,1.5881915092468262,-1.7828012704849243,1.7100098133087158,0.3488527834415436,-0.4356946349143982,-0.5556327104568481,0.48323267698287964,-0.5563445687294006,0.18712109327316284,0.5637417435646057,0.44254571199417114,-0.0026761500630527735,1.0046217441558838,-0.0286137405782938,0.13734863698482513,-0.26756924390792847,0.48509979248046875,-0.6542961597442627,0.5883775353431702,-1.471815824508667,0.0736055076122284,-0.0721869170665741,0.9496867656707764,-0.2525981366634369,-0.23136799037456512,0.6854698061943054,-0.8836689591407776,-0.07751604169607162,0.5377048254013062,-0.03976256772875786,-0.23938390612602234,0.5443392992019653,0.31228870153427124,-0.2460901290178299,0.21042828261852264,0.3575192987918854,0.13798579573631287,0.30573350191116333,0.3380647301673889,-1.4654961824417114,-0.3248196542263031,-1.184662938117981,1.043880581855774,-0.9267513751983643,0.8378973007202148,-1.240845799446106,0.5457227826118469,0.2968357801437378,-1.2951645851135254,0.14962175488471985,0.21177524328231812,-0.28085628151893616,-0.9209740161895752,0.9733508825302124,-0.1954094022512436,-0.11572406440973282,-0.5039051175117493,-0.48386242985725403,0.07352511584758759,0.9335263967514038,0.0759136974811554,-0.3417905271053314,0.41625863313674927,0.29260221123695374,0.10856893658638,-0.732195258140564,0.7381208539009094,-0.4651740789413452,0.6589020490646362,-1.1431158781051636,0.6652476787567139,0.7342203259468079,0.7327200770378113,0.10352163761854172,-0.8035226464271545,-0.5789691805839539,-0.7825332283973694,-0.06994069367647171,0.5321418642997742,-1.0532211065292358,-0.34031277894973755,1.05642569065094,-0.15683545172214508,0.017418377101421356,1.1923956871032715,-0.4224711060523987,-0.05369287729263306,-0.5163353085517883,-0.21003815531730652,0.18276767432689667,0.23720264434814453,1.182772159576416,-0.7316827774047852,0.8082248568534851,0.24280638992786407,0.040876831859350204,0.5795726776123047,0.10216518491506577,0.9353433847427368,-0.6715295314788818,-0.8673692941665649,-0.043275319039821625,0.3609261214733124,-0.22206279635429382,-1.5419425964355469,-0.49947217106819153,0.8680738806724548,0.3290632367134094,0.5731815695762634,-0.051485367119312286,-0.5951314568519592,1.3288624286651611,0.668674886226654,-1.2283871173858643,1.3860496282577515,1.4076522588729858,-0.1436135619878769,0.16693787276744843,-0.47143611311912537,-0.9771825075149536,-0.4966198205947876,0.3836781680583954,0.018978068605065346,-0.5955218076705933,0.8936845660209656,2.2186453342437744,-0.19699132442474365,0.3041057586669922,-1.058180809020996,0.027010181918740273,1.1486701965332031,-2.25964617729187,-1.3353077173233032,-0.26357489824295044,1.0172697305679321,0.8032289743423462,-0.7893931269645691,-0.3014165461063385,0.49922415614128113,0.2892758250236511,-0.8249067664146423,1.3455770015716553,-1.296054482460022,1.7382410764694214,-0.6653054356575012,-0.43989700078964233,0.4666869640350342,0.2079884111881256,1.440118670463562,-0.9367150664329529,-0.23909901082515717,-0.7054343819618225,0.4232783913612366,0.2224152833223343,-0.5586109161376953,-0.8677898049354553,0.5038612484931946,0.43581005930900574,-0.9632759094238281,-0.7760452032089233,0.6375130414962769,-1.7460201978683472,-0.5138907432556152,0.7803452610969543,-0.3001672625541687,-1.595989465713501,-0.584624171257019,0.7286989688873291,-0.42113667726516724,-0.7336249947547913,-0.2474421262741089,-0.9625911116600037,0.064980149269104,-0.5389724969863892,0.41265997290611267,0.15836834907531738,0.02496495470404625,-0.23641155660152435,0.651042640209198,0.7756586670875549,-1.1829715967178345,0.9514334201812744,-1.034388542175293,0.23258881270885468,0.8108878135681152,-0.39138227701187134,-0.27951690554618835,0.5330220460891724,0.0024833339266479015,-0.13728567957878113,-0.08290623128414154,0.8093599677085876,-1.1645699739456177,1.2897909879684448,-0.22150500118732452,-0.09389028698205948,0.8139620423316956,0.6186174154281616,0.9469695687294006,-1.2533880472183228,-0.027227254584431648,-0.9678001403808594,0.10055617243051529,0.43882766366004944,-0.7812935709953308,-0.24911640584468842,0.5311940908432007,-0.7791283130645752,-1.1729958057403564,0.05772172659635544,0.8936098217964172,-1.301175832748413,-0.770941436290741,0.8340970873832703,-0.015212271362543106,-1.7090470790863037,0.6263801455497742,-0.9208250641822815,1.068542718887329,-1.259965181350708,0.7782052159309387,-0.8734981417655945,-0.04657891392707825,0.5760778784751892,-0.8842051029205322,-1.0064929723739624,0.062258802354335785,0.08400879055261612,0.06528252363204956,-0.04803478345274925,-0.5136502385139465,1.383129596710205,-1.1970986127853394,-0.5086226463317871,0.8188160061836243,0.16085019707679749,-0.7338802218437195,-0.10345164686441422,0.4951435923576355,-0.08859669417142868,-1.072200059890747,0.7235665917396545,-0.2407638281583786,1.0972046852111816,-0.6270430088043213,0.5466154217720032,0.5104015469551086,0.5207712054252625,0.39181917905807495,-1.0346622467041016,-0.12612375617027283,-0.5579462647438049,-0.04122307524085045,0.3970530033111572,-0.5174062252044678,-0.3235042989253998,0.7268569469451904,0.5947021842002869,-1.293229341506958,-1.0936051607131958,-0.04515870660543442,-1.500288724899292,-0.26083609461784363,0.32704874873161316,-0.08525873720645905,-1.1978706121444702,-0.570625901222229,0.7778173685073853,-0.7861790657043457,0.13726940751075745,1.5106147527694702,-0.19103646278381348,0.06735805422067642,-1.0649949312210083,1.0695868730545044,-1.7196913957595825,0.6466177105903625,0.18775290250778198,-1.2493311166763306,0.7464315295219421,-0.28133952617645264,2.8673017024993896,0.3752157390117645,-0.410818874835968,-1.2247487306594849,0.9298200011253357,-0.6753333806991577,-0.6650689840316772,0.9250789284706116,0.06880726665258408,-0.4321299195289612,-1.03409743309021,0.9746707677841187,-0.5549922585487366,0.6465970277786255,-0.24925850331783295,-1.0530201196670532,-0.12340565025806427,-0.5782762765884399,0.26877444982528687,0.4515819549560547,0.38902121782302856,-0.06315620243549347,1.28146493434906,1.3039264678955078,-0.9707354307174683,0.4681266248226166,0.749627411365509,-0.22119811177253723,-0.42732927203178406,-0.21674825251102448,-1.5558257102966309,0.2854095995426178,0.43647441267967224,1.089123249053955,-0.8412067890167236,-0.854103684425354,1.484298825263977,-0.4998641312122345,0.6157045364379883,0.33435574173927307,-0.6487758159637451,0.7801576256752014,-1.0736147165298462,0.9331318140029907,0.7083095908164978,-0.8575670719146729,1.104506254196167,0.6964812278747559,0.11840090155601501,-1.0821655988693237,0.7020471692085266,-1.1143490076065063,-0.5997100472450256,-0.0599294975399971,-0.021184170618653297,-1.6210007667541504,-0.07162786275148392,0.6219848394393921,-0.5251222848892212,-1.4081271886825562,0.569456160068512,-0.33520787954330444,0.6180180907249451,-0.5092549920082092,-1.1796348094940186,-0.33539119362831116,0.14426684379577637,0.2654322683811188,-0.6692281365394592,-0.9664118885993958,-0.47868722677230835,-0.2444683313369751,1.0950409173965454,-0.36907586455345154,-1.0492396354675293,0.7609407901763916]},"inputHidden":{"rows":20,"columns":20,"weights":[-0.3999824821949005,-1.0240330696105957,2.8523190021514893,-2.083918333053589,-0.11606234312057495,0.06147383153438568,1.4919103384017944,-0.08515996485948563,2.9851009845733643,1.2975149154663086,0.10065657645463943,1.8970290422439575,-1.074510097503662,1.3990570306777954,-1.0115708112716675,-2.14382004737854,-1.59767484664917,0.09079953283071518,-0.24253122508525848,-0.01132641825824976,-0.5485290288925171,0.10913651436567307,0.7285168170928955,-1.5288183689117432,0.43902429938316345,-0.39029598236083984,1.6346310377120972,-0.5258915424346924,0.8549872040748596,1.439347505569458,0.5414372086524963,1.4027962684631348,-0.2243848592042923,-0.3175002336502075,-1.2745647430419922,-0.9304594993591309,0.7595983743667603,-1.0688408613204956,0.7546048164367676,1.4891748428344727,0.6253600120544434,-0.2923664152622223,0.6234899163246155,-0.3214341700077057,0.07783951610326767,-0.14563687145709991,-0.10049527138471603,-0.1256284862756729,-0.10987015068531036,-0.006037630140781403,-0.02898745983839035,-0.15937235951423645,0.1200074627995491,0.6518635153770447,0.022906869649887085,-0.1635795682668686,0.11137624830007553,-0.028228504583239555,0.14165139198303223,-0.5034294724464417,-1.0584032535552979,0.34977197647094727,0.8862911462783813,-0.10505993664264679,-0.2950800359249115,-1.1368004083633423,0.8171845078468323,1.7261953353881836,0.8036084771156311,0.9731422066688538,0.08023107796907425,0.7114148736000061,-0.5734739899635315,0.5725720524787903,-0.21306224167346954,-0.7870566248893738,0.8007211089134216,0.012058882042765617,-0.3307065963745117,0.7691604495048523,0.33139485120773315,0.4763333797454834,1.1830508708953857,0.12721006572246552,0.5974735021591187,0.17178313434123993,0.16818012297153473,-0.4153704345226288,-0.13501420617103577,0.43118414282798767,1.3829244375228882,0.14528635144233704,-1.589834451675415,1.8078914880752563,0.7492061257362366,-0.13927103579044342,0.7031188011169434,-1.5198650360107422,-1.1418805122375488,0.24891357123851776,-0.301855206489563,0.8134068250656128,0.12528546154499054,-0.2090444266796112,0.4210907518863678,1.2397562265396118,0.009524972178041935,-0.09242326021194458,0.7294418215751648,0.20036929845809937,0.3441031575202942,-0.5093041658401489,0.4136856198310852,0.5514379143714905,-0.16461434960365295,0.18385049700737,-0.23303133249282837,0.34061965346336365,-0.18887999653816223,-0.22892093658447266,0.25961872935295105,-0.21052846312522888,-0.15865769982337952,-0.067648746073246,-1.320853590965271,-0.04282340407371521,-1.7846249341964722,1.2355068922042847,0.2675144076347351,-1.2951641082763672,-1.809512972831726,-0.3643271327018738,0.25922033190727234,3.776124954223633,0.5187472105026245,-0.7847959995269775,-1.8448458909988403,0.006042076274752617,0.5085591673851013,-0.7096907496452332,0.14337973296642303,0.5847530364990234,-0.9468827247619629,-2.2893285751342773,-1.9942855834960938,0.17917366325855255,-1.3092639446258545,1.4863214492797852,1.812395453453064,0.06885574012994766,-2.8124537467956543,0.4550865590572357,-1.583805799484253,0.9728875160217285,1.442205786705017,-0.8986911177635193,-5.229883193969727,-0.9052558541297913,-2.0769078731536865,0.1403546929359436,-0.17778971791267395,-0.967821478843689,-0.4969378113746643,-0.877166748046875,0.4849921762943268,-0.3024123013019562,-0.8200235366821289,-0.7601699233055115,-0.8529566526412964,-1.6858580112457275,1.3293852806091309,-0.5423200130462646,0.9489356875419617,-0.3160664141178131,0.7218697667121887,1.2320663928985596,-0.19416767358779907,-0.11096900701522827,0.757611870765686,-1.213114857673645,-1.3617010116577148,-0.9540965557098389,-0.5611019730567932,-0.7108656167984009,-1.9608941078186035,-0.9876667857170105,0.3145156502723694,1.2852321863174438,-0.5286223888397217,1.1575539112091064,-1.429753303527832,0.8596659302711487,-1.1260720491409302,-2.930748224258423,-0.1342395544052124,-0.2648695707321167,-0.10056906938552856,0.9175173044204712,1.1330934762954712,0.5321651101112366,0.1737585961818695,-0.8315296769142151,0.9329770803451538,0.19622768461704254,2.1260383129119873,1.0251350402832031,-0.5558406710624695,1.8223464488983154,-0.5007992386817932,-0.39633169770240784,2.4480326175689697,-0.3349100649356842,0.47238343954086304,-2.569512367248535,0.5821850895881653,0.7876882553100586,1.093125820159912,-0.2407795637845993,0.6184110045433044,-0.14618636667728424,0.05791337043046951,-0.8412874341011047,0.2847849130630493,-0.49021339416503906,-0.21564076840877533,-0.060743942856788635,-1.3751277923583984,-0.10565933585166931,-0.9818542003631592,-2.642312526702881,-0.3567120432853699,-1.1012235879898071,1.169101595878601,0.13164591789245605,1.0728890895843506,-0.3100157380104065,-0.12633109092712402,-0.10293489694595337,1.0377678871154785,-1.534928798675537,0.5497445464134216,0.10063017159700394,0.07460925728082657,0.3288208544254303,-0.35600516200065613,0.30518171191215515,-0.04054216295480728,0.7037456631660461,0.37253835797309875,0.07550372183322906,-0.4242085814476013,0.0991077572107315,-0.23088982701301575,0.09933057427406311,-0.18965232372283936,-0.10040049999952316,-0.16097141802310944,-0.15970394015312195,0.2659386396408081,0.14134034514427185,-0.21285508573055267,-1.3389575481414795,3.200256109237671,-2.7519800662994385,-0.7315279245376587,-0.33705130219459534,0.845280110836029,0.5155588388442993,1.6868317127227783,-0.0008859195513650775,-0.18418627977371216,0.21177376806735992,-2.718012809753418,3.0062618255615234,2.220017194747925,-1.480179786682129,1.6320021152496338,-3.003798246383667,-1.0117360353469849,0.4559133052825928,0.7969361543655396,0.25971704721450806,1.6810952425003052,-2.318660259246826,-1.2841194868087769,-1.8565975427627563,-0.44003745913505554,2.977468490600586,-0.12361235916614532,1.2746573686599731,-1.0965133905410767,0.10627240687608719,-3.506195068359375,0.9564580321311951,0.03126486763358116,-0.10487623512744904,1.3202118873596191,0.38216492533683777,0.05128893628716469,1.0524322986602783,-0.16496893763542175,-0.6015840172767639,-1.4644240140914917,0.21830888092517853,0.5600274801254272,-0.15771715342998505,-0.8622661232948303,-0.41628599166870117,-2.376316547393799,-2.0214478969573975,0.9040614366531372,-1.7190872430801392,1.259016513824463,-1.4518436193466187,1.4265843629837036,1.5999996662139893,0.14472830295562744,-0.9168376922607422,1.3849294185638428,-0.47221967577934265,2.743013381958008,0.5775896310806274,-0.35907283425331116,1.2365972995758057,-1.134134292602539,2.0604541301727295,0.5755170583724976,-0.12291180342435837,0.7702305316925049,1.0235588550567627,-1.1108887195587158,1.1307064294815063,-0.8019241690635681,-0.047289613634347916,-1.0948331356048584,-0.6454530358314514,1.1882911920547485,0.39041027426719666,-0.7296382188796997,0.9958889484405518,0.9655709862709045,0.12989820539951324,-0.07925894111394882,0.7691282629966736,-0.7889523506164551,0.4327063262462616,-0.28728383779525757,0.42857953906059265,0.35671404004096985,0.019527524709701538,-0.9020093083381653,0.3113144338130951,0.3109411299228668,0.6565893888473511,0.09819482266902924,-0.21123552322387695,0.4741590917110443,-0.6208464503288269,-0.21882866322994232,-0.05709070339798927,0.10228648036718369,-1.0563888549804688,0.4453660547733307,-0.3210693597793579,-1.3699604272842407,0.413684219121933,0.02311853878200054,0.7857148051261902,0.3079538345336914,0.6902822256088257,-2.188148021697998,1.4266191720962524,-2.2474782466888428,0.4572184681892395,-1.9005752801895142,0.0011525083100423217,-1.4357402324676514,2.15722918510437,0.7307437658309937,0.33765098452568054,0.468676894903183,0.27580034732818604,-0.3737103044986725,0.10116366297006607,0.5878050923347473,0.23380643129348755,0.02957642264664173,-0.5813100337982178,-0.49784496426582336,-0.40679365396499634,0.8038302063941956,-0.5765796303749084,0.27269259095191956,-0.20102961361408234,0.4382137954235077,0.47848495841026306,-0.03883747011423111,-0.04196624085307121,-0.15249770879745483,-0.8684538006782532]},"inputBias":{"rows":20,"columns":1,"weights":[0.6253163814544678,-0.27245572209358215,0.7248218655586243,-0.34063151478767395,-0.3134465217590332,-0.5557761192321777,0.4570276737213135,-0.9041391015052795,0.8027576208114624,0.11349769681692123,-1.27932870388031,0.1058921292424202,-0.7427291870117188,0.3140769302845001,0.45085129141807556,-0.59054034948349,1.9473741054534912,-0.35624656081199646,-0.42170384526252747,-0.08984094113111496]},"forgetMatrix":{"rows":20,"columns":25,"weights":[-0.3102220594882965,-1.255530595779419,0.4766782522201538,0.006564904469996691,-1.7593954801559448,-1.2148184776306152,1.2233866453170776,-0.3886626064777374,-1.1360372304916382,0.437309592962265,0.06074534356594086,1.4578683376312256,0.4481948912143707,-1.2729158401489258,-0.3249199390411377,-0.2997838854789734,1.0629044771194458,-1.0690189599990845,0.013513957150280476,0.09968455135822296,-0.2301374077796936,1.7773147821426392,-0.622515082359314,-1.4227080345153809,0.47652125358581543,-0.4166625440120697,-0.9608351588249207,-0.011554430238902569,-0.38059529662132263,-1.8128211498260498,-0.41653236746788025,1.2118163108825684,-0.5831324458122253,-1.4212695360183716,-0.44251567125320435,0.42121416330337524,0.4756627082824707,1.391116976737976,-0.9894341230392456,0.2793361246585846,-0.486420601606369,0.2612156569957733,-0.43297648429870605,0.0740056186914444,-0.13888207077980042,-0.6088600158691406,1.1367170810699463,-0.2673141360282898,-1.2228130102157593,1.8228272199630737,-1.1210020780563354,0.09342130273580551,-1.523077130317688,-0.7931309342384338,-0.5167325139045715,0.10184627771377563,0.08386789262294769,-1.712751865386963,-0.7591877579689026,-0.059179890900850296,1.48513925075531,-0.2778282165527344,1.259234070777893,1.3713403940200806,-1.271541714668274,-1.4714922904968262,0.19185596704483032,-1.105351448059082,0.24245856702327728,1.4965229034423828,-1.1597360372543335,-0.08215127885341644,0.957624077796936,-0.17192517220973969,0.14860470592975616,-0.7901490330696106,-1.055351734161377,-0.08976475894451141,0.5732060670852661,-0.9346557855606079,-0.8511108756065369,0.961093544960022,-1.0224331617355347,-0.9014782905578613,-0.5045233964920044,-0.3158550560474396,0.5139832496643066,-0.034655001014471054,-1.0823858976364136,-0.05694000422954559,-0.5408625602722168,0.32983148097991943,-0.10500186681747437,-0.4970182776451111,0.06121916323900223,-0.7623887658119202,0.8911401033401489,0.11942095309495926,-0.7190864086151123,0.07352936267852783,0.16949889063835144,-0.6063923835754395,-0.11961672455072403,-0.3612460792064667,-0.7370043992996216,0.2820383906364441,-0.15718474984169006,0.08757537603378296,-0.38081085681915283,0.18092864751815796,-0.20298613607883453,0.3151122033596039,-0.16133388876914978,-0.030518651008605957,-0.13766717910766602,-0.6326237320899963,0.0832110270857811,0.2416970431804657,0.7655583620071411,1.0603126287460327,-0.2864050269126892,0.03688819333910942,-0.16278448700904846,-0.9592884182929993,1.534084439277649,0.33671191334724426,0.2155616134405136,-0.6049520969390869,-0.52945876121521,-0.8608199954032898,0.1558627188205719,0.5990204215049744,-0.844158411026001,-0.8482428789138794,-0.3896224796772003,0.17955558001995087,-0.04377599433064461,0.21072116494178772,-1.174272894859314,-0.42507171630859375,-1.305993914604187,-0.20650005340576172,0.5678110122680664,-0.5087100267410278,0.37922635674476624,-0.7312167882919312,0.34916701912879944,0.33522742986679077,-0.2313530147075653,0.06416293233633041,0.9486579298973083,-0.9992607831954956,-1.2458385229110718,-0.09177539497613907,-0.4886105954647064,-0.24616892635822296,0.1597820520401001,-1.0043283700942993,-0.2991563677787781,-0.7065568566322327,1.3001666069030762,-1.1601675748825073,2.56856369972229,0.9486832618713379,-0.12081252038478851,-0.6877655386924744,-0.44991692900657654,0.4803449809551239,0.03485647961497307,1.8061013221740723,-0.47342678904533386,-0.38002416491508484,0.9699546098709106,-0.3448145389556885,0.8066209554672241,0.30973246693611145,0.5883306860923767,-0.06998807936906815,-1.4079482555389404,0.12143530696630478,0.8340660929679871,-0.39928898215293884,0.4861811101436615,0.31598713994026184,0.3526422679424286,-0.2729949653148651,0.25028103590011597,0.5851852893829346,-0.05884784460067749,-0.1118394136428833,-0.16421395540237427,0.18119177222251892,0.4038873016834259,-0.6874346137046814,-0.33288392424583435,0.4880869388580322,-0.8397037982940674,-0.4408876299858093,0.3697659969329834,-0.6586535573005676,0.376495361328125,0.5266360640525818,-0.051409367471933365,-1.2581923007965088,0.3264947533607483,1.45743727684021,-0.19404548406600952,0.911109983921051,0.5742149949073792,-1.1350871324539185,0.8661705255508423,-0.31439900398254395,1.4126763343811035,-0.16846083104610443,0.3413342237472534,0.33852121233940125,-0.7429103255271912,-0.04585397243499756,1.8144679069519043,-0.6769812107086182,0.797304093837738,0.19251354038715363,-0.02106276899576187,0.7315304279327393,-0.9399965405464172,0.4096407890319824,-0.0012150652473792434,0.3979402780532837,0.47749271988868713,0.009558897465467453,-0.14994095265865326,-0.4321751892566681,1.6411681175231934,0.4711631238460541,-0.19047650694847107,0.16331669688224792,-0.3336189389228821,-1.1219152212142944,1.8615621328353882,1.1519807577133179,1.3498567342758179,-0.2461550086736679,0.589072585105896,0.07009679079055786,-0.8114559650421143,0.9158557057380676,-0.3349008858203888,-0.019544007256627083,-0.23524612188339233,0.6064355969429016,0.03548014163970947,-0.7363248467445374,0.28732943534851074,-0.32835283875465393,-0.12075570970773697,-2.0796079635620117,-0.9336820840835571,1.170344352722168,1.3543317317962646,0.9330721497535706,-0.563835620880127,0.6241116523742676,-0.4915950894355774,1.4568815231323242,-0.37989363074302673,0.2582089900970459,1.08295476436615,0.5041195154190063,1.1533845663070679,0.30282655358314514,1.295055866241455,-0.5630919337272644,0.016384726390242577,-0.14534002542495728,0.09991192072629929,0.20930048823356628,0.8229435682296753,0.5093722343444824,-0.43792426586151123,1.3262741565704346,0.9276273250579834,-1.6805564165115356,0.9710039496421814,1.6326358318328857,0.16770242154598236,-0.3660048842430115,-0.17296555638313293,0.02916933409869671,0.3472582697868347,1.0482993125915527,1.217391014099121,0.12391575425863266,0.564998984336853,0.7754324078559875,-0.6822301149368286,1.1666209697723389,-1.2638849020004272,-0.312992125749588,0.8189860582351685,-1.1041048765182495,0.31075674295425415,-0.22557507455348969,0.06669814139604568,-0.5097304582595825,-0.1105983704328537,-0.3978545665740967,0.2394956648349762,-0.37387222051620483,-0.15184471011161804,-0.5747091174125671,0.8218196034431458,-0.5481725931167603,1.5084123611450195,-0.7392007112503052,0.1822993904352188,-0.7363865375518799,-0.5483057498931885,0.733119785785675,0.7379140257835388,0.5672163367271423,-0.3141692876815796,-0.14611728489398956,0.30035001039505005,0.03938192129135132,-0.7630783319473267,0.6541852951049805,-0.4501931369304657,-1.1912164688110352,-0.1692935675382614,-0.49353379011154175,-0.1412583440542221,0.1054716631770134,0.16479431092739105,0.07782583683729172,-0.6731997132301331,1.1319050788879395,-0.611532986164093,0.6056828498840332,0.020075654610991478,-0.8746964335441589,-0.20995470881462097,-0.4636383056640625,0.5460827350616455,0.3118579685688019,0.3296258747577667,-0.009213214740157127,0.35208815336227417,0.9731649160385132,-0.2764114439487457,-0.1872706562280655,0.00013686568127013743,0.05108712241053581,0.642780065536499,0.8878597021102905,0.4712175726890564,-0.2304067760705948,-0.20137369632720947,-0.3183304965496063,0.48695001006126404,0.8498149514198303,-1.2020050287246704,0.28993698954582214,-0.9016004800796509,-0.23481406271457672,1.141625165939331,0.2698571979999542,0.7261667847633362,-0.9235537052154541,-1.487933874130249,-0.5741217136383057,-0.3261234164237976,-0.3559085428714752,-1.1427143812179565,0.12382124364376068,1.8568005561828613,0.1092456504702568,0.22621095180511475,-0.2910986840724945,-0.3713170289993286,0.25455108284950256,0.9190368056297302,-0.2737385034561157,1.710274338722229,0.08414443582296371,-0.29122239351272583,0.5085814595222473,-0.10489463806152344,-0.40293651819229126,0.7599529027938843,-0.2119988054037094,0.9079139828681946,-0.08546513319015503,0.14721983671188354,-0.12219235301017761,-0.870721161365509,1.8141988515853882,-0.41071265935897827,0.15069171786308289,0.41084757447242737,-0.4105193018913269,0.6289272308349609,-0.4720640182495117,-1.708200454711914,-0.19211909174919128,-1.2437978982925415,-0.594673752784729,0.7479626536369324,1.0337408781051636,-0.4978841543197632,-1.4338043928146362,1.4569947719573975,-0.9216551184654236,0.4485618770122528,0.15786044299602509,-2.5441300868988037,-0.2947465777397156,-1.1299350261688232,0.5191602110862732,-0.17712292075157166,0.5067391395568848,0.009131314232945442,0.4475705027580261,1.8827183246612549,-0.708197832107544,-0.25038209557533264,-0.3063313961029053,-0.4430826008319855,-2.0805020332336426,-0.8033779859542847,-0.6679717898368835,0.03362657502293587,0.38793864846229553,-0.41351446509361267,-0.5319381952285767,-0.9314772486686707,1.68539297580719,-0.8503957986831665,0.7336552739143372,1.4144229888916016,-1.2990254163742065,-1.0464683771133423,-0.28837504982948303,-0.8059626817703247,-0.8561087846755981,1.2047343254089355,-0.28308719396591187,0.02626641094684601,1.4631510972976685,-0.07189605385065079,-0.17877063155174255,0.11160317808389664,0.011264435015618801,-0.2196730077266693,-0.582967221736908,-0.09143568575382233,0.2777787446975708,-0.06056736782193184,-1.358079433441162,0.14284062385559082,0.2088920623064041,-0.25878795981407166,-0.09550365805625916,1.025768756866455,-1.4631935358047485,-0.11903027445077896,-1.223435640335083,0.31110915541648865,0.39690178632736206,0.38610678911209106,0.8456171751022339,-1.1593917608261108,-0.029790477827191353,-0.03620321676135063,0.1057676374912262,-0.5684417486190796,0.23456235229969025,0.6479790806770325,0.09224750101566315,-0.41500794887542725,1.0532686710357666,1.0305217504501343,-0.8688815832138062,-0.5321270823478699,0.49335092306137085,0.05020653083920479,-0.6141108870506287,-0.1096184104681015,1.3400821685791016,0.057554956525564194,0.843712568283081,-0.03288733959197998,-0.0795927345752716,-0.005714362021535635,0.33237993717193604,-0.21330174803733826,0.20488320291042328,-1.198164939880371,-1.2502087354660034,1.337217926979065,-0.11228454858064651]},"forgetHidden":{"rows":20,"columns":20,"weights":[0.11222296953201294,0.17575407028198242,0.975874662399292,0.377217561006546,-0.13282302021980286,0.01987769827246666,1.4410773515701294,-0.31381434202194214,0.8310790061950684,0.6562625765800476,-0.4554627537727356,2.2513535022735596,-0.23477841913700104,1.3576499223709106,-1.4053008556365967,-1.7461355924606323,-0.2756529152393341,-0.29480764269828796,-0.42642277479171753,0.32772964239120483,1.438416838645935,0.8609262704849243,-0.9070473313331604,2.252150297164917,0.005722902249544859,-0.4632672667503357,0.3308160603046417,0.13588890433311462,-0.210798442363739,-0.3939550220966339,0.37553906440734863,0.6852278113365173,-0.08809787780046463,0.22160369157791138,-0.44804686307907104,0.5147130489349365,0.4386773705482483,0.13625074923038483,-0.6955350637435913,1.1179322004318237,-1.4872701168060303,-0.9487186074256897,-0.43939217925071716,0.28356173634529114,0.23150521516799927,-1.3073585033416748,0.44883015751838684,-0.8507898449897766,-0.6214371919631958,-0.4177119731903076,-0.8220888376235962,-0.4819558560848236,-0.9162313938140869,-3.3825316429138184,1.7291743755340576,0.7479482293128967,1.5784825086593628,-0.016573714092373848,-0.05442069098353386,-0.06729085743427277,0.11427399516105652,-0.15844762325286865,2.40578031539917,-0.44244858622550964,1.003774642944336,0.6793280243873596,0.5867561101913452,-0.5736141204833984,-0.05494919791817665,1.6816747188568115,0.44110873341560364,0.3932168781757355,0.08738704025745392,-0.15745876729488373,-0.6719692349433899,-0.859216570854187,1.3693077564239502,-0.737467348575592,0.27217379212379456,-0.36691316962242126,-0.06298394501209259,-0.3797467052936554,0.43391451239585876,-0.5564526915550232,-1.0552903413772583,-0.4282122552394867,0.5080446600914001,0.9584023356437683,1.3920676708221436,0.8916588425636292,-1.149055004119873,1.074353575706482,-0.13880237936973572,0.1766587346792221,-0.5735360383987427,-0.7429314851760864,-0.0500003881752491,-0.012093840166926384,0.23683130741119385,1.1108078956604004,1.1731822490692139,-1.0725456476211548,1.1013137102127075,-1.4929279088974,-0.9187090992927551,0.23957569897174835,0.27752217650413513,1.527910828590393,1.4791661500930786,2.519770860671997,-1.1999753713607788,0.8418652415275574,-1.3703097105026245,-0.026881029829382896,-0.4759981036186218,-2.008415699005127,-2.1448326110839844,-0.03446304425597191,-0.5347069501876831,-0.3906882405281067,-0.08696109801530838,-0.8189760446548462,1.1042349338531494,-0.35825690627098083,0.1944621354341507,2.5036206245422363,-0.4724850356578827,-1.9199074506759644,-0.8977031111717224,-0.83314448595047,-0.5458939075469971,-0.39190155267715454,-0.9797133207321167,-1.0370118618011475,1.3418132066726685,-0.15012146532535553,1.0021032094955444,-0.16152720153331757,0.570896565914154,-0.4034416675567627,0.547170102596283,0.36075037717819214,-0.21854718029499054,0.012817446142435074,-1.4196687936782837,-0.6139774322509766,1.1095960140228271,0.6775784492492676,2.5559492111206055,1.014295220375061,-1.292386531829834,1.7797106504440308,0.135933056473732,1.9449468851089478,-0.9207567572593689,-1.2987644672393799,0.43899044394493103,0.6958382725715637,-0.1433185487985611,2.1207892894744873,-2.432755470275879,-1.258328914642334,0.9232742190361023,-1.4545321464538574,2.2578229904174805,-2.5593385696411133,1.350045084953308,-1.6070621013641357,-0.9425554871559143,0.07434387505054474,0.38611316680908203,0.32716104388237,-0.08248116075992584,-2.8175268173217773,0.40733015537261963,-0.3284097909927368,-0.2264893501996994,-0.5350942611694336,0.2647915780544281,0.6618078947067261,-0.13135889172554016,0.377483069896698,-1.8831852674484253,-0.7167344093322754,-1.4627856016159058,-1.8939183950424194,-0.9320141673088074,0.08087843656539917,-0.9851609468460083,-0.9404067397117615,-1.1764498949050903,-0.723615288734436,-0.7001864910125732,2.15432071685791,0.29254987835884094,0.9274801015853882,-1.7290455102920532,0.12943287193775177,0.6957311034202576,-0.958621621131897,1.5359858274459839,-0.6848045587539673,1.733101725578308,-1.4948256015777588,-1.9790180921554565,-1.446677565574646,-2.0215370655059814,2.498809576034546,1.010377287864685,0.7234950661659241,-0.9888347387313843,0.14171940088272095,-0.41589853167533875,2.772840738296509,0.28733038902282715,-0.9149835109710693,-0.8897472023963928,-1.643963098526001,1.3413302898406982,0.4952007830142975,-2.1807308197021484,-0.2549271881580353,1.2918046712875366,0.5160847902297974,1.8230031728744507,-1.0585273504257202,2.345583915710449,-1.3226840496063232,-1.2991306781768799,-0.0484975203871727,1.0609856843948364,-0.5699227452278137,0.5784823894500732,-2.1672937870025635,-0.19371333718299866,-0.10171757638454437,3.6668875217437744,-0.9337082505226135,0.3237680196762085,0.5502240061759949,-0.1302764117717743,0.4878085255622864,0.6544529795646667,-0.28829425573349,-0.9097060561180115,0.47773295640945435,0.5927734971046448,-0.10797928273677826,0.8832331895828247,0.5000988245010376,-0.13839483261108398,0.541476309299469,0.5585400462150574,-0.007458454929292202,0.11207517236471176,-1.0108357667922974,1.3323988914489746,-0.3589298129081726,-1.8430601358413696,0.8937050104141235,0.07691645622253418,-0.3352391719818115,1.0623843669891357,-0.27118149399757385,-0.4624180495738983,-0.5045621991157532,0.5447165369987488,0.5816364288330078,1.3275365829467773,0.8628484010696411,-0.8524783253669739,1.0640949010849,-0.42223653197288513,1.3481968641281128,-1.2594072818756104,-0.7779724597930908,-0.7764258980751038,0.18873247504234314,0.4785430133342743,0.8166695237159729,-0.44264963269233704,0.13145911693572998,-0.6624757647514343,-0.04875103011727333,0.31858041882514954,0.5212441682815552,-0.4763869345188141,0.22911784052848816,-0.19086025655269623,-0.6265338659286499,0.9570914506912231,-0.44545361399650574,-1.2796990871429443,-0.4774789810180664,-0.7039417028427124,0.41165560483932495,-0.7575685977935791,1.241071343421936,1.059879183769226,-0.5410656332969666,-2.1064815521240234,-0.2765582799911499,-1.0431760549545288,-0.3307529091835022,-0.26216885447502136,-0.2723478376865387,-0.3587557375431061,-0.15292289853096008,-1.281719446182251,-1.6513137817382813,-1.0610556602478027,-0.92920982837677,-1.499003291130066,-1.4332280158996582,1.7265321016311646,0.9832689762115479,-1.2782195806503296,0.7265060544013977,-0.43931126594543457,-0.6616170406341553,1.3921408653259277,-0.35074830055236816,0.7932906150817871,-0.9332560896873474,-0.09594697505235672,0.6666619777679443,0.2985563278198242,-0.22438602149486542,1.3678523302078247,1.4547350406646729,0.08081956207752228,1.1962409019470215,0.017434444278478622,0.3880315124988556,-1.8579492568969727,-0.8173733353614807,0.035592302680015564,0.4697616994380951,-1.8820445537567139,0.6189059615135193,-0.7333714962005615,-0.20692718029022217,-0.17177952826023102,0.1545247733592987,-0.000559602864086628,0.06340555846691132,-0.058769434690475464,0.03102070465683937,-0.18899360299110413,-0.15333887934684753,0.06386702507734299,-0.0284735020250082,0.7044603824615479,-0.08927866816520691,-0.5653059482574463,0.12587624788284302,-0.1390192210674286,0.06101124733686447,0.2935033142566681,-0.06497008353471756,-0.13555952906608582,-0.10694482177495956,0.8209531307220459,-0.10406080633401871,0.3261928856372833,0.33123528957366943,1.0329303741455078,-0.4001927375793457,0.4734211266040802,0.014739610254764557,-0.3854621648788452,0.4378886818885803,0.569907009601593,0.29442742466926575,0.20594564080238342,-0.8570836782455444,1.1890403032302856,-0.796974241733551,-0.07878461480140686,0.6682232022285461,0.2734611928462982,0.5719993710517883,-0.8903329372406006,-0.26434847712516785,0.13427014648914337,0.08918850868940353,-1.339897871017456,0.4984423816204071,-0.7100030183792114,-1.2262321710586548,0.9665650725364685,-1.2170031070709229,-1.2401766777038574,-1.611373782157898,0.9985060691833496,1.3908708095550537,-1.145079493522644,1.008525013923645,0.8626152276992798,-1.276962161064148]},"forgetBias":{"rows":20,"columns":1,"weights":[0,0,0,0,0,0,0,0,0,0,0,0,0,0,0,0,0,0,0,0]},"outputMatrix":{"rows":20,"columns":25,"weights":[0.6173704266548157,0.47296664118766785,0.09163911640644073,-0.7312870621681213,-0.8964387774467468,0.64740389585495,-0.38820019364356995,0.7394033074378967,-0.4408009946346283,-0.33963796496391296,0.4629708528518677,-0.19120831787586212,-0.933003842830658,1.0140900611877441,1.3891643285751343,0.39264458417892456,-0.4480992257595062,1.0102401971817017,-0.021837865933775902,-1.0095380544662476,0.5076680779457092,0.23734475672245026,-0.22551371157169342,-1.048201560974121,1.3754489421844482,0.5039642453193665,-0.2500302493572235,-0.23848679661750793,0.42337578535079956,-1.2298195362091064,-0.1871197372674942,0.904150664806366,0.08411993831396103,-1.6625944375991821,-1.084132194519043,1.3396331071853638,-0.7635854482650757,1.155292272567749,-0.4927716851234436,1.1739871501922607,0.6154990792274475,-0.9705023169517517,0.45079299807548523,0.007123936433345079,-1.0826170444488525,0.480518102645874,0.7224671840667725,-0.12243260443210602,-0.8719603419303894,1.3205045461654663,0.852536678314209,0.7676013708114624,-0.5875533819198608,-0.6114834547042847,0.3331899642944336,0.9793388843536377,0.1904987096786499,0.4603308439254761,-0.37659820914268494,-1.6964128017425537,1.7603758573532104,-0.8092231750488281,1.5917474031448364,0.6289284229278564,0.33892908692359924,-0.13406914472579956,-0.9675421714782715,0.5813940763473511,-0.13779029250144958,-0.8539738059043884,0.43674570322036743,-0.07085477560758591,0.12031739205121994,0.4640713036060333,-0.45305612683296204,0.33771204948425293,-0.20854651927947998,-1.454421877861023,-0.6766772866249084,-0.29395774006843567,0.24964818358421326,0.056043896824121475,-0.8400055766105652,0.021289395168423653,-1.3281466960906982,0.9129688739776611,-0.8449989557266235,1.1262048482894897,-0.7118237614631653,-0.53451007604599,-0.8806614875793457,-1.0276765823364258,0.5602571964263916,0.25863566994667053,1.1182761192321777,-0.5126649141311646,0.055766478180885315,1.1875313520431519,-0.39930737018585205,0.3080873191356659,0.3421109914779663,0.5396227836608887,-0.3928537368774414,0.23213475942611694,1.31905996799469,-0.04042031243443489,-0.7000249624252319,0.40796324610710144,1.3605283498764038,-0.16870790719985962,0.4133901596069336,-0.9647954106330872,-1.049559235572815,-0.5002915263175964,-0.19225847721099854,0.41854730248451233,-0.7691721320152283,0.573927640914917,1.899306297302246,0.21724173426628113,-0.18690210580825806,0.10098842531442642,0.8500428795814514,0.64622563123703,-1.413923740386963,-0.2688222825527191,-0.273430198431015,0.10295823216438293,-0.20481529831886292,-1.547762155532837,0.662082850933075,0.5900761485099792,-0.20952585339546204,-1.1606675386428833,-0.8302371501922607,0.4150722026824951,-0.13389727473258972,0.3240518271923065,-1.3573205471038818,0.7772237658500671,0.017628410831093788,-0.5826758742332458,-0.1360424906015396,0.19989599287509918,-0.5028929114341736,-0.6380008459091187,1.4163448810577393,-0.33966004848480225,-1.0392816066741943,1.0360406637191772,-0.09651680290699005,-0.5455905795097351,-0.6652076244354248,0.5366420149803162,0.7998970150947571,-0.6568095684051514,0.10419820249080658,-1.476069450378418,0.03939604014158249,0.43407830595970154,-0.345035582780838,-0.3122314214706421,0.6850751042366028,-0.37382274866104126,-1.320947527885437,-0.5607900619506836,0.007582028862088919,-0.0786280557513237,-0.43716907501220703,1.0267854928970337,-1.3038389682769775,-0.4146635830402374,0.6416391730308533,0.7039141654968262,-0.9057537317276001,0.30112117528915405,0.7265307903289795,0.49591684341430664,0.1777457892894745,0.2330024689435959,0.7891727089881897,-0.24747012555599213,2.010627269744873,0.44932660460472107,-0.1328101009130478,0.09113384038209915,0.18681155145168304,-1.38916015625,-1.288969874382019,1.311331033706665,1.6848728656768799,-0.08373706787824631,0.2186782956123352,0.6042025685310364,-2.0874252319335938,1.9014379978179932,0.1473681479692459,-0.7028619647026062,-0.23617231845855713,0.25369805097579956,-1.1238175630569458,0.002154142828658223,0.6135603189468384,0.19597679376602173,0.6158906817436218,-0.45444411039352417,-0.4702592194080353,0.20776726305484772,0.11253426223993301,0.8724737167358398,-0.8371557593345642,0.8032152652740479,-1.1800042390823364,0.7669407725334167,0.4450966417789459,0.33629080653190613,0.9302595853805542,-1.6836059093475342,0.5751928687095642,-0.06640598922967911,-0.30286478996276855,-0.719079315662384,-0.43840914964675903,0.5445125102996826,0.0649116113781929,-0.14527615904808044,-1.020474910736084,-0.1436460018157959,0.44150975346565247,-0.9835326075553894,-0.8320030570030212,0.7302657961845398,0.9290747046470642,-0.7491104602813721,-0.40401509404182434,0.5426971316337585,-0.2993384301662445,-2.05401611328125,0.014102633111178875,-0.6475350856781006,1.9315099716186523,-0.6974573731422424,0.29134365916252136,1.0750404596328735,-0.9797975420951843,0.38831987977027893,0.885871410369873,0.6202674508094788,-0.6639158129692078,-0.33539658784866333,-0.32292860746383667,1.610412836074829,0.5978637337684631,-0.9173505902290344,1.2099629640579224,1.3008244037628174,-1.2459176778793335,0.42564284801483154,1.2708669900894165,0.30117759108543396,-0.3697446882724762,0.08702848851680756,0.2125733345746994,-0.9897345304489136,1.2456696033477783,0.8084366321563721,0.09114385396242142,-0.01105635054409504,1.4398080110549927,-1.1744898557662964,0.5752592086791992,-0.6009849309921265,-1.1381523609161377,0.8507921695709229,-0.9510296583175659,-0.2552429437637329,0.4762837290763855,-0.2568250000476837,-0.5884177088737488,1.2158838510513306,0.9412020444869995,-0.46655863523483276,-0.19621698558330536,0.27838391065597534,0.3555936813354492,-0.38203164935112,0.30624258518218994,-0.1999162882566452,-0.3020492196083069,-0.46760594844818115,-0.08159550279378891,-0.07214948534965515,0.043131910264492035,0.006077909842133522,-0.18054905533790588,-0.388579398393631,-0.25820913910865784,-0.25505468249320984,1.1390105485916138,-1.4263426065444946,0.0953029990196228,-0.8217949271202087,-2.078608512878418,-1.043137550354004,-1.0003774166107178,0.37331217527389526,0.21268263459205627,0.3729701340198517,-0.24300524592399597,-1.8678339719772339,1.081045150756836,-0.07105676084756851,2.117326021194458,-0.39598706364631653,-1.897200107574463,-0.18367499113082886,-0.6476919054985046,-0.07995017617940903,0.9293153285980225,0.26980918645858765,0.2874513268470764,-0.015262655913829803,1.796890139579773,-0.04770269617438316,-0.6424576640129089,0.32908666133880615,1.2572060823440552,0.691774308681488,-0.4010108411312103,0.7589534521102905,0.9406833648681641,-0.9299518465995789,-0.7190274000167847,0.7148551344871521,-0.049678292125463486,-0.6146993637084961,0.041022300720214844,1.5714293718338013,-0.033041298389434814,2.2854557037353516,2.1410560607910156,0.16032882034778595,0.08551083505153656,0.2623652517795563,-2.473329782485962,0.42713961005210876,-0.8826290965080261,-1.6193864345550537,0.30721789598464966,0.8742454051971436,-0.5915160179138184,-0.4004320502281189,1.4573512077331543,-0.2818918824195862,-0.9110013842582703,-0.09323959052562714,0.15236759185791016,-0.25762003660202026,-0.646968424320221,1.3280378580093384,-0.9629421830177307,0.9557805061340332,-0.1065354272723198,0.3596195578575134,1.3131606578826904,-0.2676852345466614,1.233371615409851,-1.1040204763412476,-1.4851373434066772,-0.11409785598516464,-0.2514122724533081,0.33998140692710876,-2.2400007247924805,-0.5807502269744873,2.8400113582611084,0.2561158239841461,0.3794471025466919,0.38162973523139954,-0.42593199014663696,-0.327820748090744,0.45209285616874695,-0.5846800804138184,1.8834885358810425,-0.1541321575641632,-0.2394939810037613,0.7400764226913452,-0.2533000111579895,-0.5639086961746216,1.1946704387664795,0.4906189739704132,1.3345030546188354,-0.5900828838348389,0.3145214021205902,1.6721317768096924,-1.4443620443344116,1.2741929292678833,-0.5788903832435608,-0.20195981860160828,-0.0866859182715416,0.007572752423584461,-0.10035093873739243,-0.9988203048706055,-0.9495503902435303,-0.3392755091190338,-1.9124728441238403,0.25106802582740784,0.9653095006942749,-0.07162695378065109,-1.6037075519561768,-0.5449250340461731,0.20937106013298035,-0.2395322322845459,0.2314341962337494,1.2252414226531982,-0.3182116150856018,-0.1391417235136032,-0.4358707666397095,0.07961693406105042,-1.6372195482254028,0.5214064717292786,0.13481803238391876,0.09120585024356842,0.48032674193382263,-0.7762593030929565,2.7431013584136963,0.7873663306236267,0.16227944195270538,-1.956167459487915,-0.8980929851531982,-0.21274805068969727,0.34476205706596375,0.023994337767362595,0.5681176781654358,0.03572052717208862,-1.8105535507202148,1.8114423751831055,-0.7412996292114258,1.4353008270263672,-0.3116496205329895,-2.3807601928710938,-0.8920092582702637,-0.8354374766349792,0.8584831357002258,0.957226037979126,0.969695508480072,0.2049330621957779,0.404463529586792,1.607092261314392,-0.24244216084480286,-0.5224366188049316,0.8620831966400146,-0.9841564297676086,-2.020237922668457,-0.568370521068573,-0.967033326625824,-0.3941158950328827,0.4870572090148926,-0.33194661140441895,-0.7122250199317932,-1.4997137784957886,1.7403088808059692,-1.0731581449508667,1.791487216949463,-0.004174813628196716,-1.7043521404266357,-0.8181332349777222,-0.9105973839759827,0.541162371635437,0.19862939417362213,0.8108696341514587,-0.33674049377441406,-0.4532938003540039,1.1014935970306396,0.04709581658244133,0.05736372992396355,-1.2098093032836914,-0.3326357305049896,-0.3376828730106354,0.16379967331886292,0.07412426173686981,-0.23433345556259155,0.44283586740493774,-0.5944728255271912,0.0981469675898552,0.43540364503860474,-0.9673534035682678,0.9630845785140991,0.13617050647735596,-0.6326531767845154,-0.7852388620376587,-0.2838486433029175,0.8134346008300781,-1.3904502391815186,-0.857289731502533,0.28933805227279663,-0.40410760045051575,0.08107253909111023,0.1343383640050888,0.30661818385124207,-1.0778605937957764]},"outputHidden":{"rows":20,"columns":20,"weights":[-2.0825977325439453,-1.3849362134933472,2.314466953277588,-1.5144293308258057,-0.4260186553001404,0.03020343743264675,1.2958648204803467,-0.885932445526123,-0.15397970378398895,-0.2683447003364563,-0.5663487315177917,0.7314521074295044,0.8105134963989258,-1.0077248811721802,0.18818733096122742,-0.9965850710868835,0.020059894770383835,-1.0733428001403809,0.6708896160125732,-0.09445139765739441,1.4907053709030151,0.683690071105957,-0.3849271833896637,0.9601860642433167,0.7463236451148987,0.31480318307876587,0.3450945317745209,-0.9225963950157166,0.4081933796405792,0.5245625972747803,1.257683277130127,0.8381869196891785,-0.1111268401145935,-0.3356828987598419,-1.0316030979156494,0.43678009510040283,-0.1969395875930786,0.00218081078492105,-0.6039508581161499,0.5754895806312561,-1.1887967586517334,-0.4007429778575897,0.516564130783081,2.1242241859436035,0.4079717993736267,0.6820661425590515,-0.958477795124054,-2.3636255264282227,-1.9075191020965576,-2.099102258682251,-0.07577158510684967,-1.2285842895507813,-1.4202898740768433,-1.3352333307266235,2.0307271480560303,1.0643765926361084,0.6385358572006226,0.9318660497665405,-1.8842318058013916,-1.5634866952896118,-2.652008295059204,0.3777883052825928,1.6237069368362427,-0.6283481121063232,0.37018218636512756,-1.2551718950271606,1.177619218826294,2.0491819381713867,0.6313270926475525,1.1669270992279053,1.7616251707077026,0.7542945742607117,1.068238377571106,1.6537600755691528,-0.27383774518966675,-0.44211602210998535,2.272761583328247,-1.5041590929031372,1.2970243692398071,0.8819071650505066,0.8450877070426941,0.7812390923500061,1.4187461137771606,0.8453589081764221,-0.06021884083747864,0.41333675384521484,0.8165017366409302,-0.8540853261947632,0.6876097917556763,0.398569256067276,0.26948434114456177,0.7113959193229675,-0.1718582957983017,0.6663504838943481,-0.13055618107318878,-1.5830479860305786,2.2598233222961426,-1.4749979972839355,-0.524724006652832,0.8236624002456665,0.0977703109383583,0.1634669303894043,0.33250731229782104,0.607010543346405,0.8208475708961487,2.575608015060425,1.1955323219299316,-1.4464021921157837,3.402789831161499,2.22434139251709,0.41146278381347656,2.1480371952056885,-0.2781362533569336,0.5811221599578857,-1.242241621017456,-1.1351841688156128,-0.5076099634170532,1.0036022663116455,-2.235166311264038,0.8869651556015015,0.6246882677078247,-0.31040769815444946,0.4989236295223236,-0.6096216440200806,2.952443838119507,0.8497913479804993,0.6912395358085632,-0.4597640633583069,-0.620884895324707,-1.0108333826065063,4.399971008300781,-0.6066710352897644,-2.701298952102661,-2.2891597747802734,0.5449784398078918,0.46350640058517456,-1.0607653856277466,2.026040554046631,-1.2526277303695679,-0.6224678754806519,0.06436901539564133,-0.784267008304596,-0.836115300655365,-0.09634214639663696,-0.06737656146287918,0.28496426343917847,-0.21663875877857208,0.09907562285661697,0.5108453631401062,0.18837858736515045,-0.0027585590723901987,0.6257238984107971,-0.5319902300834656,0.9783424139022827,-0.9427350759506226,0.2568359375,-1.6294175386428833,0.41322481632232666,1.8355133533477783,0.2455732673406601,-0.8153923153877258,-0.4617532789707184,-1.9218831062316895,0.009715214371681213,0.8550127148628235,-0.6773428916931152,-1.1316691637039185,-0.7843474745750427,-1.020122766494751,-1.8783539533615112,1.8951025009155273,-1.2423309087753296,-0.5596221685409546,-0.9789595007896423,1.0998780727386475,2.000943422317505,-1.779064416885376,0.615622878074646,-0.23520275950431824,-1.1428444385528564,-0.46911901235580444,0.37935593724250793,0.46282958984375,0.4372413754463196,0.22054454684257507,-3.0520055294036865,-0.44547683000564575,-0.6250994801521301,-2.6259055137634277,-1.3513827323913574,0.6112709045410156,0.3896231949329376,0.6434116363525391,-0.27088597416877747,-0.5194898247718811,-0.38166719675064087,-0.11877338588237762,-0.01299983635544777,0.590185821056366,-0.0903436690568924,-0.37479400634765625,-1.481553077697754,0.38400301337242126,-1.0514847040176392,1.0683773756027222,0.03188329190015793,0.43942511081695557,-0.5130630731582642,-0.008722048252820969,-0.2266276478767395,1.3958324193954468,-0.5924290418624878,0.6687724590301514,0.3474872410297394,0.10196592658758163,0.27091822028160095,-1.0311557054519653,-0.2765813171863556,0.97608882188797,0.28998881578445435,-1.295068383216858,-1.3232686519622803,-1.5348055362701416,-2.6565957069396973,-0.5860722661018372,-0.6550167798995972,-1.9299099445343018,0.1426500380039215,-2.772189140319824,-2.2202441692352295,-0.7060771584510803,-1.7464053630828857,-0.4749893844127655,-2.3143460750579834,2.0481150150299072,1.9753018617630005,-0.5678258538246155,-0.3696437180042267,1.7262787818908691,-2.319800615310669,-0.060926035046577454,-0.5847606658935547,0.4983013868331909,0.12093310058116913,0.8186514973640442,0.23960772156715393,0.30517324805259705,-0.6392751932144165,0.49561747908592224,0.5516772866249084,-0.027517391368746758,0.7899941802024841,-0.7622224688529968,0.19727402925491333,-0.9972119331359863,-0.4898056387901306,-0.708260715007782,0.8515689373016357,1.6596267223358154,0.52809077501297,-0.5529642105102539,-0.3206615149974823,1.6714826822280884,-1.6478935480117798,0.7421976327896118,0.23637418448925018,0.4245518147945404,-0.15618374943733215,1.6817185878753662,1.218461513519287,-0.585468590259552,0.7804441452026367,-1.7262461185455322,1.1656033992767334,0.05079474300146103,0.3428282141685486,0.1616664081811905,0.9404529929161072,-0.5727574229240417,0.18959753215312958,-0.1569770723581314,-0.16906531155109406,-0.5669569373130798,-2.7592923641204834,-1.4654349088668823,1.027640461921692,-1.0057792663574219,-0.20344656705856323,-0.3578283488750458,0.4536727964878082,-1.1986756324768066,0.27197980880737305,-2.144010305404663,0.9873172640800476,-0.5964697599411011,0.5732038617134094,-0.35749340057373047,1.222507119178772,0.6241508722305298,-0.1870313435792923,2.1468346118927,0.4522867798805237,-1.1836981773376465,2.378164291381836,-0.6462095379829407,-0.7655640244483948,-0.8847157955169678,-0.11943184584379196,-0.19575995206832886,-3.0892879962921143,-1.6313542127609253,-0.41590362787246704,-0.10947887599468231,1.2490289211273193,0.836013674736023,-0.3267279267311096,-1.1531530618667603,0.4610343873500824,0.09388245642185211,-1.1526058912277222,1.2893624305725098,0.24255536496639252,-0.5380979180335999,0.12616491317749023,-0.6384087800979614,1.5650629997253418,-0.006397072691470385,0.1624596267938614,0.8396469354629517,0.4020470380783081,-0.8826891779899597,0.5763442516326904,-0.4880705177783966,-0.3799422085285187,-0.6296964287757874,-0.041603513062000275,1.0452066659927368,0.12954926490783691,-0.4256514310836792,0.6342844367027283,1.878719449043274,-0.41506582498550415,-0.10141037404537201,0.7077804207801819,-1.1492581367492676,0.2853727638721466,-0.0021897221449762583,0.17438438534736633,0.08978108316659927,-1.0496406555175781,-0.6662333607673645,0.5697031021118164,0.3356035053730011,0.009409517981112003,-1.1033337116241455,0.20092055201530457,-0.5630568265914917,-0.27185097336769104,0.14067542552947998,0.026516271755099297,0.41048142313957214,-0.01495682168751955,0.8595008254051208,0.0833091214299202,-0.8044396638870239,0.21107728779315948,-0.1743622124195099,0.44328024983406067,0.8092255592346191,0.6933979392051697,-1.2363845109939575,1.2658867835998535,-1.8976213932037354,0.5568283200263977,-1.7582452297210693,-0.32297223806381226,-1.0821940898895264,1.4970471858978271,0.38459548354148865,0.07080145925283432,1.2866662740707397,0.09961400926113129,-0.6791445016860962,1.2363917827606201,1.6196997165679932,-0.406215637922287,-1.4947303533554077,-0.09804367274045944,-0.2362493872642517,-2.2317721843719482,1.378260850906372,-1.3439432382583618,0.02531822957098484,0.5848072171211243,0.9806879162788391,0.8394283056259155,-2.063422918319702,0.3937089443206787,-0.027324700728058815,-1.6536030769348145]},"outputBias":{"rows":20,"columns":1,"weights":[0.03653533384203911,-0.4555194079875946,0.4783993065357208,-0.3368990421295166,-0.6799098253250122,-1.2653945684432983,-0.498349666595459,-0.4079399108886719,1.5915457010269165,-0.6381709575653076,-0.8621125817298889,0.6366068124771118,-0.7738429307937622,0.0016171509632840753,0.35517171025276184,0.08063793182373047,2.1061530113220215,-0.3486731946468353,-0.7830858826637268,-0.3046885132789612]},"cellActivationMatrix":{"rows":20,"columns":25,"weights":[0.3907129764556885,-0.13600943982601166,-0.44050514698028564,0.6959978342056274,0.6441655158996582,-0.5037294626235962,-0.05322869494557381,-0.7651751637458801,-0.004341451916843653,-0.22938677668571472,0.6196873784065247,-1.0439016819000244,0.5854039788246155,0.8984642624855042,-0.3611662685871124,-0.6898260116577148,-0.6055195927619934,0.4412163496017456,0.1498366743326187,1.2500410079956055,-0.7566176056861877,-0.5768725275993347,0.9358928799629211,0.6352306008338928,-0.639564573764801,0.31208622455596924,0.029476400464773178,-0.39587992429733276,-0.6554422974586487,-0.5372761487960815,-0.05009673163294792,0.14041803777217865,0.39869722723960876,-0.2389713078737259,-0.42036426067352295,0.5932489037513733,-0.382706880569458,0.6456100940704346,1.218085527420044,-0.5849603414535522,0.6022660732269287,-0.26984694600105286,0.2906205952167511,0.4905119240283966,-0.2983669936656952,0.4584439992904663,0.14581608772277832,0.27709072828292847,-0.1827325075864792,0.44680944085121155,0.009516164660453796,0.287838876247406,-0.6380619406700134,-1.134500503540039,0.25453853607177734,0.8326743841171265,-0.3448783755302429,-0.6403567790985107,0.3673474192619324,-0.12871409952640533,0.05023875832557678,0.14057928323745728,0.7233318090438843,-0.7295798659324646,-0.6547977924346924,-1.3605821132659912,0.10245639085769653,0.23512470722198486,-0.17591990530490875,0.9708413481712341,-0.40344297885894775,-0.41812601685523987,0.3975900709629059,0.7378545999526978,-0.8734633326530457,0.7908712029457092,-0.38859429955482483,0.061192065477371216,0.6740097403526306,-0.4699088931083679,-0.5431234240531921,-0.010172469541430473,0.6402851343154907,-0.009447013959288597,-0.646652340888977,0.6413530111312866,-0.5821712613105774,-1.5526379346847534,1.7209233045578003,0.26197054982185364,0.7760091423988342,-0.6346389055252075,0.4545123279094696,0.650567352771759,-0.0736578032374382,0.46399545669555664,0.3602519929409027,0.27397406101226807,-0.7584834694862366,1.1425247192382813,0.3757445216178894,0.43296852707862854,0.5006932020187378,0.39520344138145447,0.16961625218391418,-0.07548624277114868,-0.09443463385105133,1.7959834337234497,0.12897522747516632,-0.358933687210083,0.24125796556472778,-0.16301754117012024,-0.7325514554977417,0.004733813460916281,0.46692782640457153,1.4692707061767578,-0.3119266927242279,0.46973899006843567,0.23391051590442657,-1.3098747730255127,1.6546275615692139,-0.05639267712831497,-0.36908242106437683,0.06719397753477097,0.03681982308626175,0.7688800096511841,-0.09214141964912415,-0.700769305229187,-0.0780017301440239,0.039764609187841415,0.07720513641834259,-0.33843791484832764,-0.025945480912923813,0.3922514021396637,-1.0191137790679932,0.8974739909172058,-1.3177486658096313,-0.17193228006362915,0.11752122640609741,-0.6764469742774963,-0.1274549812078476,-1.2736278772354126,1.1335785388946533,0.697726845741272,0.4935681223869324,-0.1573946624994278,0.04742782562971115,1.0661699771881104,-0.09847231209278107,-0.6219176650047302,0.44976380467414856,0.5655840039253235,-0.2747894823551178,0.14127279818058014,0.8757977485656738,0.12177949398756027,-0.4610641896724701,0.10039935261011124,0.6826297640800476,-0.33115291595458984,0.44459226727485657,-0.6245279312133789,-0.6163308024406433,0.18123158812522888,-0.5979657769203186,0.1523294895887375,-0.473784476518631,0.47487765550613403,0.403388112783432,0.6152551770210266,0.15845385193824768,-0.4004158675670624,0.2699321508407593,0.6966844797134399,-0.9645388126373291,-0.42136678099632263,-0.854883074760437,0.7478460073471069,0.20289599895477295,-0.7953584790229797,-0.60172438621521,0.8830109238624573,-1.4031991958618164,-1.2584420442581177,0.32394957542419434,-0.30070483684539795,0.6803503632545471,0.48235994577407837,-0.721112072467804,0.411554217338562,-0.6388267278671265,0.47862493991851807,-0.2527358829975128,-0.08607369661331177,0.3903185725212097,-1.269605040550232,1.0492713451385498,-0.7426645755767822,-0.7531216740608215,0.85597825050354,0.6286534667015076,0.714813232421875,-0.22724515199661255,-0.025731142610311508,0.5900794267654419,0.4889971911907196,-0.4645068645477295,-1.2632514238357544,0.2513445019721985,-0.13764424622058868,-0.27030304074287415,-0.1704878807067871,0.699475884437561,-1.3866370916366577,-0.1455972045660019,-1.9336328506469727,-0.13517774641513824,0.8414074182510376,0.17476578056812286,1.265099287033081,-1.4133265018463135,-0.28935837745666504,-0.14146070182323456,0.1263561248779297,-0.022121310234069824,0.38396984338760376,-0.1356789767742157,-0.43357986211776733,0.340553343296051,0.3851250410079956,-0.26262593269348145,0.2528122067451477,-0.17805716395378113,-0.12126504629850388,-1.152927279472351,0.9124550819396973,-0.7638240456581116,0.2264675796031952,-0.5547691583633423,-0.6202059388160706,-0.2745911478996277,-1.1437677145004272,0.8063998818397522,0.6683453321456909,0.2793597877025604,-0.5913853645324707,0.1090378612279892,1.1580125093460083,0.2161582112312317,-1.205906629562378,-0.2883108854293823,0.3329201936721802,1.2010180950164795,0.2799135744571686,0.2719563841819763,-0.013211406767368317,-0.20000143349170685,1.1803138256072998,0.21812602877616882,0.7304535508155823,-0.8388724327087402,0.9731135964393616,-0.717317521572113,0.2756732106208801,1.1821590662002563,1.2007248401641846,0.7069703340530396,-0.4735315144062042,-0.31281182169914246,-1.0388067960739136,1.3340492248535156,-0.19705531001091003,-1.2417012453079224,0.23017185926437378,-0.022188693284988403,0.37187469005584717,-0.2991374731063843,-0.6714893579483032,-0.35849156975746155,-0.39597368240356445,-0.4327816963195801,0.3608150780200958,-0.07600069791078568,-0.3247581720352173,-1.29425048828125,1.3249191045761108,-1.2652546167373657,1.0294376611709595,-0.4584939479827881,-0.7667185068130493,-0.10031507164239883,-1.2544058561325073,0.7423965334892273,0.5427066087722778,0.23477835953235626,-0.17775651812553406,0.11169217526912689,1.137044072151184,-0.008037757128477097,-0.7021979689598083,-0.016020221635699272,0.7668917775154114,-0.18947231769561768,-0.9244057536125183,0.17426154017448425,0.8252601027488708,-0.6515683531761169,0.6236441731452942,0.7408369779586792,0.3451502323150635,-0.3922896683216095,-0.033534176647663116,0.1491582691669464,0.6760697960853577,0.04583411663770676,0.4689304530620575,0.5384933352470398,-0.22096696496009827,-0.2899991273880005,-0.6080033183097839,0.4091547429561615,-0.7989855408668518,-0.47495922446250916,0.5121554136276245,0.7326524257659912,-0.7153123617172241,-1.0654278993606567,0.2662259638309479,1.8973013162612915,-1.1265205144882202,-1.6050121784210205,1.0431461334228516,-1.766969919204712,-0.8573265075683594,0.5180265307426453,-0.4512421190738678,0.198652982711792,-0.41855356097221375,-0.835326611995697,-0.24448274075984955,0.46211275458335876,0.2738681137561798,-0.7582683563232422,-0.3059443235397339,0.3275476098060608,-0.9856353998184204,1.4492539167404175,-0.017479602247476578,-1.1300926208496094,0.5617942810058594,-0.4748113453388214,0.5952377915382385,1.7352840900421143,0.44096702337265015,-0.04485085979104042,-0.22543315589427948,0.1693507879972458,-0.08006609976291656,-0.41725894808769226,0.20579060912132263,-0.7787179946899414,0.894790530204773,-1.3405348062515259,-0.44759443402290344,2.128608465194702,0.07279063761234283,0.5596999526023865,-0.42070272564888,-0.3116254508495331,-0.5443779826164246,0.3602256178855896,0.4284636080265045,-0.9359034895896912,-0.26912131905555725,0.34747445583343506,-0.7640941143035889,0.14370599389076233,0.6465335488319397,-0.49921053647994995,-0.32158809900283813,0.2924022376537323,0.46525275707244873,0.5555353164672852,-0.4769076406955719,0.439762681722641,-0.5412362813949585,0.6806414723396301,-0.3227882981300354,-0.42443811893463135,0.45738485455513,0.48121529817581177,0.14532946050167084,-0.6585808396339417,-0.36759471893310547,-1.6873666048049927,0.3993892967700958,0.17382191121578217,-0.8706258535385132,-0.03019045852124691,0.20598255097866058,0.48536792397499084,1.1700694561004639,0.05965843424201012,-1.6481492519378662,1.0514034032821655,1.7258402109146118,-1.3650442361831665,1.3535836935043335,1.2294975519180298,-0.08431770652532578,0.07292686402797699,-0.3248530328273773,0.0559522770345211,0.10717892646789551,-0.12244802713394165,0.6595627069473267,-0.19259044528007507,0.629096269607544,1.0474601984024048,-0.6269755363464355,1.1854180097579956,-1.4238638877868652,-0.05732842907309532,1.033774495124817,-0.2890108525753021,0.2625480890274048,-1.28757643699646,-0.5654230117797852,1.1528886556625366,-0.40049293637275696,-1.1869257688522339,0.7125465273857117,-0.9750691652297974,-0.44711899757385254,-0.46259281039237976,0.41431474685668945,-0.5430417060852051,0.009127480909228325,-1.0342921018600464,-1.065132737159729,-0.31906208395957947,-0.5067334175109863,-0.2196476310491562,-0.2504688501358032,0.19952358305454254,-0.8693621158599854,0.6331447958946228,0.513685941696167,-0.4298689067363739,-0.19958850741386414,-0.9185398817062378,-0.5993852615356445,0.3869685232639313,0.5106558203697205,-0.40030738711357117,-1.6084285974502563,0.31960684061050415,-0.011585099622607231,-0.3245463967323303,0.4709010720252991,-0.5978463292121887,0.8305996060371399,-0.6803421378135681,0.3489157557487488,0.6981874704360962,0.12160549312829971,0.5774573683738708,-1.1549290418624878,-0.5889564752578735,-0.4179874062538147,-0.10051751881837845,0.0606265664100647,-0.3339896500110626,-0.30782419443130493,0.5275631546974182,0.5459171533584595,1.0645005702972412,0.4431653320789337,-0.8054553866386414,0.6250402927398682,0.9328855276107788,-0.7752054333686829,0.9035260081291199,0.8103398084640503,-0.18553316593170166,0.46507763862609863,-0.40623921155929565,0.3699686825275421,-0.08496993035078049,0.48181843757629395,0.25339531898498535,-0.35260939598083496,0.3355589509010315,0.734767735004425,-0.6066097617149353,0.4060401916503906,-0.24502626061439514,-0.4303554892539978,0.5244889855384827,-0.2538484036922455]},"cellActivationHidden":{"rows":20,"columns":20,"weights":[-0.5880599021911621,-0.3369295299053192,-0.1795312464237213,-0.363899827003479,-0.32390862703323364,-0.4502636194229126,0.3356230556964874,0.21390768885612488,0.1257811188697815,-0.04145338013768196,-0.46576574444770813,-0.5178849697113037,0.1683904379606247,0.05938516557216644,1.165224313735962,0.19009818136692047,0.10319045931100845,-0.10260993242263794,0.09233558177947998,-0.21683549880981445,-1.101776123046875,-1.1582109928131104,0.07480496168136597,-0.7649945616722107,-0.5878869295120239,-0.4841342866420746,0.030804481357336044,0.3987329304218292,-0.21502819657325745,-0.061830222606658936,-0.504014253616333,0.05480007082223892,-0.36654946208000183,-0.0860295295715332,-0.04267241805791855,-0.13702499866485596,-0.6050359606742859,0.6182032823562622,1.183901309967041,-0.013401814736425877,0.5147814154624939,0.3528658151626587,0.561698317527771,0.8464956879615784,1.179396390914917,0.8181140422821045,0.8205317854881287,-1.0912737846374512,0.355290949344635,0.5383239388465881,1.0937219858169556,0.5855257511138916,0.6940615773200989,0.5162366628646851,-0.6516463756561279,-0.2772606313228607,1.1039248704910278,-1.4222451448440552,-0.6668936014175415,0.6951901316642761,-0.7522023916244507,-0.8706170916557312,-0.057942718267440796,-0.7006909847259521,-0.7620322704315186,-0.625620424747467,0.5838236808776855,0.7863679528236389,0.03459527716040611,0.028462335467338562,-1.452810287475586,0.26706424355506897,-0.4543621838092804,-0.08346617966890335,-0.1914907544851303,0.19485661387443542,0.20498783886432648,0.387014776468277,1.1017602682113647,0.29849347472190857,-0.6171679496765137,-0.810627818107605,0.10507676005363464,-0.5106558799743652,-0.03576384857296944,-0.24607281386852264,0.027704419568181038,0.09423239529132843,-0.21970941126346588,-0.13911409676074982,-0.03560776636004448,-0.1497679054737091,-0.09201929718255997,0.19050976634025574,0.2837205231189728,0.15411794185638428,-0.22835911810398102,0.2426837980747223,0.815714418888092,-0.19314250349998474,-0.9188421368598938,-0.6634305119514465,0.27202579379081726,-0.3033280670642853,-0.18737967312335968,-0.7140942215919495,0.5324231386184692,0.5016391277313232,-0.07669907808303833,-0.08491074293851852,-0.11498116701841354,-0.05664217844605446,0.5247069597244263,0.3732706606388092,0.06614964455366135,-0.002275330014526844,0.2650775611400604,-0.21499457955360413,0.48259419202804565,0.587877631187439,-0.027829132974147797,0.1658863127231598,0.5937108993530273,0.23911796510219574,0.0245391596108675,-0.06464167684316635,0.4216049611568451,0.09385428577661514,0.3685290515422821,0.657302975654602,0.006376112345606089,0.9393098950386047,-0.14148595929145813,0.26720985770225525,-0.6839835047721863,-0.4515201449394226,0.4446466863155365,-0.40139541029930115,-0.37865695357322693,0.9438278675079346,0.18633465468883514,0.1635480523109436,0.6829759478569031,-0.7781403660774231,0.39474162459373474,0.4083878695964813,-0.14405064284801483,-0.2773168683052063,0.6325249075889587,0.5511947870254517,0.36755767464637756,0.16768042743206024,0.31304794549942017,-0.26015615463256836,-0.10166436433792114,-0.6830093860626221,0.24868842959403992,-1.1167677640914917,-1.1437077522277832,-0.015260805375874043,0.22139719128608704,0.6425797939300537,0.8056593537330627,0.8596880435943604,0.6637169718742371,1.2159143686294556,0.4498842656612396,-0.8924985527992249,-0.32485419511795044,-0.14653916656970978,0.48043903708457947,0.7442064881324768,1.217279076576233,2.0731046199798584,0.03672407567501068,0.14458906650543213,1.3567019701004028,-0.8916544318199158,-1.0114723443984985,0.5463114976882935,0.04084164649248123,0.4146355092525482,0.2475113719701767,-0.07490237802267075,-0.3826039731502533,0.004059980157762766,0.9687420129776001,0.21629789471626282,0.061258066445589066,0.7497879862785339,-0.42240065336227417,0.07020987570285797,-0.18101370334625244,0.14296425879001617,-0.9152829051017761,-0.3392083942890167,0.6176585555076599,0.34582462906837463,-0.8519444465637207,0.7839571833610535,-0.3684855103492737,-0.32845771312713623,-0.4056178629398346,-0.08539741486310959,-0.6069814562797546,-0.7984380125999451,-0.04664942994713783,0.39722463488578796,-0.4195767343044281,-0.5574050545692444,-0.5214151740074158,-0.04732730612158775,-0.8400322794914246,0.1080673411488533,0.08741921186447144,0.3595474064350128,-0.8452188372612,0.9153860211372375,0.27277591824531555,-0.08499553799629211,0.08451839536428452,-0.10855264961719513,0.7667143940925598,-0.6347697377204895,-0.17432920634746552,-0.1325153112411499,0.6120432615280151,-0.096588134765625,0.4223957359790802,0.949367880821228,-0.3229159414768219,0.5991379022598267,0.3627517819404602,0.3065358102321625,-0.45949888229370117,-0.5656566619873047,0.4779582917690277,-0.7548176646232605,-0.37735283374786377,0.5840938687324524,-0.34102997183799744,-0.3716398775577545,-0.18240801990032196,-0.5793843865394592,-0.8159801363945007,-0.39675599336624146,-0.13353317975997925,0.32751527428627014,-0.12449867278337479,-0.1652633547782898,-0.1167539656162262,0.04457985982298851,-1.8553353548049927,-0.029466895386576653,-0.6368600130081177,0.17149172723293304,-1.6666243076324463,1.5336452722549438,1.9153223037719727,-0.04993691295385361,0.533477783203125,1.108436107635498,-1.2569252252578735,0.10257924348115921,0.5883839726448059,-0.15462349355220795,-0.24350886046886444,0.02519812248647213,-0.2417697310447693,0.1453116238117218,0.6299430131912231,-0.07097593694925308,0.03226892277598381,-2.7591686248779297,0.508050799369812,0.16519616544246674,0.6753775477409363,-0.3463146388530731,-1.535764217376709,-0.38857778906822205,-0.3707009255886078,0.3690127432346344,-0.25238722562789917,0.40995314717292786,1.062583565711975,0.2872491478919983,0.33846837282180786,0.3645486831665039,-0.2983359396457672,-0.5688445568084717,1.233563780784607,-1.655085563659668,1.7324106693267822,0.16024906933307648,0.4518466293811798,0.3381655812263489,1.6608198881149292,-1.7348357439041138,-0.6378895044326782,-0.11448866873979568,-0.12530814111232758,-0.3311411738395691,-0.7775647640228271,-0.6661927103996277,-0.1343592256307602,-0.24000422656536102,-1.0564507246017456,0.0223101694136858,-1.2507725954055786,-1.192792534828186,-0.10647539794445038,-1.275054931640625,-0.6795432567596436,-0.8771616816520691,1.1884957551956177,0.742838442325592,-0.8067236542701721,0.6264209747314453,0.07381460815668106,-1.2524033784866333,-0.3624960482120514,-1.3982089757919312,0.9783533215522766,-1.0973011255264282,-0.9326932430267334,-1.2137477397918701,0.006988215260207653,0.6717071533203125,1.1659367084503174,0.5191771984100342,-0.7713437676429749,0.5426129698753357,0.4437735676765442,1.2636829614639282,0.40797531604766846,-0.7233639359474182,-0.59609055519104,-0.29027116298675537,0.8887953162193298,0.469278484582901,0.6434828042984009,0.5087593197822571,-0.4281347692012787,0.5681018233299255,0.2923356890678406,0.3508530259132385,-0.5688247680664063,-0.31128278374671936,-0.3209046423435211,-0.45751526951789856,0.29245421290397644,-0.4804444909095764,0.29109540581703186,-0.14434397220611572,0.170690655708313,0.42647793889045715,0.07204458117485046,-0.2283480018377304,-0.2647411823272705,-0.5011142492294312,-0.2765921652317047,0.4300243556499481,0.1932472437620163,-0.19168436527252197,-0.307002991437912,-0.1467951536178589,-0.11056331545114517,0.42437320947647095,-0.1085493415594101,-0.11183539777994156,-0.09593316167593002,-0.1513204276561737,-0.28395211696624756,-0.7630724906921387,-0.14769147336483002,0.14681848883628845,0.2891245484352112,-0.44189226627349854,-0.28703758120536804,-0.10107014328241348,-0.31818920373916626,-0.5918415188789368,0.7775081992149353,-0.6321062445640564,-0.6401764154434204,-0.3590911030769348,0.6830896735191345,0.4213208258152008,0.44243934750556946,0.7915873527526855,-0.7069812417030334,0.5637945532798767,0.2880189120769501,0.29049819707870483,-0.6480070352554321,-0.7943785786628723,0.25057119131088257,-0.2697620391845703,0.5582124590873718,0.7010915875434875]},"cellActivationBias":{"rows":20,"columns":1,"weights":[-0.12307917326688766,-0.09176590293645859,-0.33266305923461914,0.03316367045044899,-0.06324656307697296,-0.08615703135728836,-0.43384164571762085,-0.09873243421316147,-0.6179075837135315,-0.4541587233543396,-0.026094140484929085,-0.580933690071106,0.27471986413002014,-0.2568570673465729,0.5186023116111755,0.558796226978302,-0.011795362457633018,0.25678032636642456,0.09006262570619583,-0.6572318077087402]}},{"inputMatrix":{"rows":20,"columns":20,"weights":[-0.8535578846931458,-1.3176754713058472,0.5588348507881165,-2.064692258834839,-2.6247363090515137,0.1581415981054306,0.6689378619194031,0.5093204379081726,0.04381710663437843,1.4331629276275635,-2.568119764328003,1.7179017066955566,-0.6521535515785217,0.3244383931159973,-0.5147425532341003,-0.0031520628836005926,0.47649624943733215,0.3759828507900238,-0.7524741291999817,2.3406989574432373,-0.9962948560714722,-1.223954677581787,3.188354015350342,-0.6443926095962524,1.1689722537994385,-0.9311898350715637,0.20701104402542114,-0.4596897065639496,0.5189821124076843,1.7534096240997314,0.17590411007404327,2.7356042861938477,-1.2499898672103882,1.2095518112182617,-0.2286781370639801,-2.7517731189727783,-0.4432382583618164,-0.3204970061779022,0.37676119804382324,0.9248625040054321,0.5798318982124329,2.615952253341675,-2.617577314376831,0.37792542576789856,-2.5122969150543213,-3.0697641372680664,0.36258870363235474,0.9574525952339172,-0.4124069809913635,0.6771319508552551,-0.36862874031066895,0.07459475845098495,-5.083559989929199,3.5455081462860107,0.12310465425252914,0.5753340125083923,0.3809348940849304,1.1003122329711914,1.300632119178772,0.7241048812866211,1.1148521900177002,0.9166332483291626,-2.135315418243408,-0.8684610724449158,0.2284863293170929,-2.775132894515991,0.05319397151470184,2.456721305847168,1.0985722541809082,0.9873886704444885,2.408923625946045,0.5452803373336792,-1.841901421546936,-0.7752119898796082,-0.6874772310256958,2.270591974258423,-0.11037925630807877,1.439332365989685,-1.1093600988388062,0.1196269541978836,-2.1448333263397217,-1.7869360446929932,0.026601508259773254,-1.3799700736999512,-2.879004716873169,1.6267242431640625,-0.6875766515731812,2.6479218006134033,2.3321075439453125,2.5910391807556152,0.2956571877002716,-0.7545245289802551,0.618175208568573,2.3650591373443604,1.4076910018920898,-1.167014241218567,0.4996809959411621,-0.9697331786155701,0.24482153356075287,0.3390693664550781,-0.5783220529556274,0.6003894209861755,2.2436444759368896,-1.1351101398468018,-2.0098721981048584,-1.1590200662612915,-0.4058341681957245,-0.8185412287712097,-0.14549876749515533,0.48072549700737,-0.43905478715896606,0.8020548820495605,-0.0029805111698806286,2.228334426879883,-1.4237651824951172,-1.157705307006836,-0.2691638171672821,-0.4724608063697815,1.6201549768447876,0.9755710363388062,-0.7669524550437927,0.5185841917991638,2.7668826580047607,0.34927836060523987,0.2744673192501068,1.514390230178833,0.41486266255378723,-0.8042649030685425,1.2198638916015625,0.28684189915657043,-0.986328661441803,1.4855892658233643,-0.7325947284698486,-2.4669203758239746,0.6921209692955017,-2.471031665802002,2.8617329597473145,-0.30749979615211487,-0.6615949273109436,0.8456006050109863,-0.5041891932487488,0.08384022116661072,0.8521474599838257,-0.6327431201934814,-0.9381468892097473,-0.6871448755264282,0.5886707305908203,0.4224429428577423,-0.04016673564910889,0.25866660475730896,-0.8563477396965027,2.476494550704956,-0.5823538303375244,0.31454387307167053,-0.045811284333467484,-0.37698453664779663,-0.33165857195854187,0.20329716801643372,-0.2810788154602051,1.7262502908706665,0.6300669312477112,0.7577588558197021,0.036448199301958084,0.33552175760269165,1.4948883056640625,0.39373135566711426,-0.8622188568115234,-0.7182340025901794,-1.0012092590332031,-1.1172246932983398,1.7494930028915405,-1.1273926496505737,-0.829559862613678,1.7249119281768799,0.6291028261184692,1.0907294750213623,-3.930384397506714,0.8865765333175659,-0.9095937013626099,-1.0458909273147583,0.040268853306770325,1.351019024848938,-6.099101543426514,-0.292186975479126,-3.1726183891296387,-0.5991499423980713,-1.0770426988601685,1.2952641248703003,1.1625306606292725,0.5975364446640015,-0.08752511441707611,0.0913691371679306,-0.6633259057998657,0.13619618117809296,-2.3557238578796387,1.3735307455062866,-2.025023937225342,1.8193087577819824,-0.17863966524600983,-0.43335476517677307,0.5534532070159912,-3.462139129638672,0.28296220302581787,-0.6538006067276001,0.7537802457809448,-1.0427236557006836,1.7154539823532104,0.3523375391960144,2.896754503250122,0.2734965980052948,-0.6863030791282654,0.5739569664001465,-0.2637758255004883,-0.6311207413673401,-0.24574589729309082,-0.20660758018493652,0.8535923361778259,-0.6711108684539795,1.3490632772445679,0.05997462570667267,-0.7034817337989807,-0.78970867395401,1.318178415298462,-1.0269575119018555,-0.8446248769760132,-0.7142990231513977,1.944434642791748,1.0855861902236938,0.39595600962638855,0.5456359386444092,-1.0247559547424316,1.5000483989715576,0.1950320303440094,1.3078548908233643,0.06889096647500992,-0.40852710604667664,-0.010363389737904072,-0.5267728567123413,1.1024540662765503,1.8251450061798096,-1.4202494621276855,-0.9838871955871582,0.3895482122898102,-0.8831849694252014,-1.255545973777771,-0.5077501535415649,-0.07844822853803635,0.4768926799297333,-0.5182210803031921,0.6680760979652405,-1.6592299938201904,0.09170858561992645,0.1176910549402237,-0.9157085418701172,-1.4835174083709717,-0.08620724081993103,-1.6734164953231812,2.0055203437805176,1.6282577514648438,0.37665584683418274,1.1523640155792236,1.3663439750671387,1.3601197004318237,0.8047159910202026,0.23832884430885315,1.9937331676483154,0.8188520669937134,-1.6559158563613892,0.2264491766691208,-0.6280309557914734,0.7416491508483887,0.9969300031661987,-6.642272472381592,-3.4400386810302734,-0.869514524936676,-1.1011097431182861,2.0709524154663086,1.6722164154052734,-2.2175400257110596,0.4862087666988373,-1.640809416770935,0.3904202878475189,0.8296688795089722,-1.8265115022659302,-1.1446349620819092,-2.9426796436309814,1.829463005065918,2.625607967376709,-1.0235306024551392,-0.09741933643817902,-0.05496202036738396,0.9106320142745972,0.22153392434120178,2.8961658477783203,-2.759591579437256,1.33827805519104,-0.19570539891719818,0.6058782339096069,-0.14049868285655975,0.3087589740753174,-0.7213261127471924,-1.1989119052886963,0.554523766040802,-2.094728708267212,-1.9081170558929443,-0.351980060338974,1.4424293041229248,0.4481070935726166,0.508351743221283,0.7075043320655823,-1.356423020362854,2.163332939147949,-0.14545728266239166,0.1231447085738182,-0.08360663056373596,-0.3741755783557892,0.3133065402507782,-0.21721288561820984,-0.4865831136703491,1.9348583221435547,0.5212767720222473,-0.5228794813156128,1.9295939207077026,-0.9346445798873901,1.0875134468078613,-1.392712116241455,3.0705621242523193,-0.9036721587181091,0.9575876593589783,1.8090426921844482,1.330013632774353,1.7248917818069458,-0.08539440482854843,0.9028030037879944,-1.6882308721542358,-0.16792795062065125,-1.0054208040237427,-0.5639826655387878,0.7657240033149719,1.8728662729263306,1.1306962966918945,-1.7052819728851318,-1.312059760093689,1.0827821493148804,0.917110800743103,0.6197814345359802,0.8778730034828186,-2.3633534908294678,2.877145767211914,0.5963506698608398,-0.3270699381828308,-0.4080299139022827,1.1991764307022095,-3.492954730987549,0.1995314657688141,-0.9610651731491089,0.0615931861102581,-1.453025221824646,1.2673051357269287,0.6494329571723938,1.6062798500061035,1.4317619800567627,-1.3708254098892212,-0.8187764883041382,2.344651699066162,0.14331670105457306,0.2551155984401703,-1.3432917594909668,1.4092369079589844,0.16596555709838867,2.1468722820281982,-0.618694007396698,0.8173502087593079,-0.5415166020393372,0.906017541885376,0.9314242005348206,-1.8435709476470947,-0.8475134968757629,-4.412436008453369,-0.29958006739616394,-1.6162617206573486,-0.7592785358428955,4.056227207183838,-4.127618789672852,-3.8562867641448975,4.199732303619385,-1.3300732374191284,0.6514798402786255,2.7214181423187256,1.5823924541473389,1.8759081363677979,0.44958996772766113,-0.9485625624656677,-0.3337986469268799,-0.013633462600409985,-1.6022120714187622,-0.19833187758922577,0.811977744102478,1.0778130292892456,-0.8738268613815308]},"inputHidden":{"rows":20,"columns":20,"weights":[-0.7518500089645386,-0.6834864020347595,0.21551764011383057,-0.11320823431015015,1.654517650604248,-2.0979998111724854,1.0230728387832642,1.3467040061950684,0.2908375859260559,0.7428814172744751,1.3101778030395508,-1.3841387033462524,-0.2791578471660614,0.49832743406295776,0.48725032806396484,-0.48233360052108765,-0.35240718722343445,0.19365918636322021,0.5087165832519531,1.674708604812622,1.3664755821228027,-0.040804021060466766,-0.1745181828737259,0.3510977029800415,0.9280174970626831,-1.3644591569900513,0.9387727975845337,0.7314934134483337,-0.8732855916023254,-0.7299636602401733,0.1839430183172226,-0.15319721400737762,-2.804016351699829,-0.9746246933937073,0.9415991902351379,-0.0049831499345600605,0.6295449137687683,0.26099246740341187,3.3568665981292725,-1.7006181478500366,-2.317145824432373,-1.9022423028945923,-5.172921180725098,1.1446845531463623,1.9937247037887573,-2.6519081592559814,1.2167472839355469,-0.10983691364526749,1.0607836246490479,-1.5385262966156006,-1.3128504753112793,0.16878104209899902,-0.7928752899169922,-2.9212772846221924,-2.2320892810821533,-4.064942359924316,0.10062066465616226,1.9141852855682373,0.499112993478775,-2.102229595184326,-1.2818810939788818,-1.44755220413208,0.8519077301025391,-0.6215580105781555,-0.6508828997612,-0.34889158606529236,-0.6086369156837463,-1.8635646104812622,-0.21595799922943115,0.754690945148468,0.6334529519081116,0.2319241762161255,4.094128608703613,1.2330049276351929,-1.2502412796020508,-0.42916369438171387,-2.970491409301758,-4.0928802490234375,4.22745418548584,2.0578067302703857,-1.5549604892730713,-0.539341390132904,-0.8122053146362305,0.4833471477031708,2.4473016262054443,-1.7011973857879639,-0.2494468241930008,0.29181361198425293,-0.5427679419517517,0.673258364200592,0.012880920432507992,2.147948741912842,1.8005861043930054,1.0170929431915283,-0.3605801463127136,-1.2467434406280518,1.029066562652588,-0.033318012952804565,0.2716631591320038,3.825721263885498,-2.0386126041412354,-1.9968048334121704,1.557466983795166,1.1363091468811035,-1.4581841230392456,1.2693842649459839,-0.11378014087677002,-0.9292594194412231,0.44134077429771423,-0.2767649292945862,0.2747649848461151,-0.44511091709136963,2.052844524383545,3.901658773422241,0.6669973731040955,0.12198173999786377,-2.0900418758392334,1.831324577331543,1.4979575872421265,3.4733197689056396,0.3824699819087982,3.0318257808685303,0.20415093004703522,-0.27168360352516174,1.0859811305999756,0.7054630517959595,1.6435059309005737,-1.1271122694015503,1.9913702011108398,0.2738448977470398,1.5383070707321167,0.701157808303833,1.6635844707489014,-0.5985707640647888,-2.420534372329712,0.808584451675415,0.261378675699234,1.4755316972732544,-0.4795639216899872,1.2712492942810059,0.13506609201431274,-1.5658527612686157,0.5047476291656494,-1.1137526035308838,-0.7284541130065918,-0.3049176335334778,1.407881259918213,0.12421101331710815,0.8242915868759155,-0.20657937228679657,0.6125292181968689,0.3303438425064087,2.6688919067382813,2.5180776119232178,0.5132977962493896,0.30378457903862,-1.8767168521881104,-0.7154279947280884,1.6863898038864136,3.1871347427368164,-0.7281244397163391,-0.9960495829582214,1.8135086297988892,0.7469252943992615,0.39520880579948425,0.03609887510538101,3.6121666431427,1.8358714580535889,-2.2425472736358643,-0.04613323137164116,-0.8316367268562317,-0.09023378044366837,-2.690011739730835,-2.789118766784668,2.0364973545074463,-0.0770159363746643,1.5034576654434204,1.6658633947372437,1.7134596109390259,2.24605131149292,0.8103432655334473,1.950776219367981,-2.545001983642578,-3.5573582649230957,0.9617220759391785,-1.8050683736801147,0.30113571882247925,1.5725315809249878,-0.9304958581924438,-0.7598952054977417,-0.8189101815223694,0.8905850052833557,-0.7565852403640747,-2.246861696243286,1.1740236282348633,-1.7567834854125977,2.772130250930786,0.6161219477653503,0.9035072922706604,-1.106724739074707,-0.11023864150047302,2.1606438159942627,3.950925350189209,1.8415968418121338,1.5292760133743286,-0.5243451595306396,0.20879650115966797,1.2037402391433716,-1.104553461074829,0.5031302571296692,1.5990188121795654,-1.6806334257125854,1.2475041151046753,-1.701672077178955,-0.20960842072963715,-0.7125328183174133,0.09206277877092361,-3.332676649093628,2.1245172023773193,3.3777735233306885,0.11235874891281128,0.26051026582717896,0.6263453364372253,-0.9355013370513916,1.6131048202514648,0.48462679982185364,0.9284725189208984,-0.5549113750457764,0.44482696056365967,-1.0692486763000488,1.6885223388671875,